3974 10
learning_systems 1.3313053 4.5612135 0.3770246 0.87132305 0.4565709 2.8035638 0.8252109 -0.15599337 -0.29078546 3.5367968
artificial_intelligence 1.3276011 -1.1953837 -2.3287475 -0.5004875 1.0002757 2.270439 1.9143573 1.62059 -0.55394197 -0.15796372
machine_learning 0.10262548 2.1522312 -1.3892725 2.6802247 -2.000588 -3.1539466 -0.3462579 0.5559296 -1.5139664 -0.17364836
algorithm -1.5715096 0.35997733 -5.023521 0.43553177 1.3636495 -1.4950279 4.838107 0.060065918 1.9760655 -4.4075437
learning_algorithms -0.60743093 4.8671837 -0.18979134 1.9501554 1.0281702 1.4128904 2.228754 -2.0790215 0.09386447 -0.08866452
human -1.4548143 -3.9538944 -18.176525 -2.14577 -0.7668819 -11.3101425 7.147986 8.595843 -0.44627324 0.7975302
article -3.3047836 0.28868747 -7.215873 8.185347 1.6409543 -2.2248383 5.18812 2.3744185 8.095296 -4.4328465
support_vector_machines -3.734223 0.43118 2.395263 1.6247302 0.11010868 -0.45481327 1.8189458 2.9985437 0.0002105747 1.0449811
classification_(of_information) 0.78054476 0.74706614 0.4760838 3.8232532 3.485286 0.7480098 0.8702566 1.4362572 0.46343425 0.5736633
data_mining 4.612269 0.3844936 -2.6330614 1.3891068 3.2788122 0.42019206 0.09538306 1.5985122 -1.2841741 -0.60815465
forecasting 0.19040786 2.4034803 -0.5886199 -1.9114851 0.41273916 5.5645847 0.8180841 2.121548 -0.39679587 -0.048760533
priority_journal -4.3855104 3.8361027 -6.848956 -2.2040076 0.10680836 -7.6162333 5.6509376 3.2558093 1.969356 -0.56274223
neural_networks -2.3767607 2.315246 0.0041599455 0.3107057 -2.6309397 3.5564616 2.5563822 1.8638166 2.9594755 4.129379
feature_extraction -0.3634589 0.4309158 -0.30089638 4.26877 3.3249757 0.4412127 0.7132231 0.7720571 2.2620404 2.8801296
support_vector_machine -4.224411 -0.31986755 0.62164056 0.615731 -0.6159919 -2.644343 2.5885663 3.8697598 0.24213485 0.118072435
extreme_learning_machine -3.903003 5.1985416 0.22788754 4.162245 -1.2042524 -0.926927 1.4372172 -1.4368062 1.6858116 0.7533539
decision_trees 1.6298248 0.30209133 -3.1910896 0.4564022 1.8168284 3.9006064 -1.3793081 2.4346538 1.2007675 0.74922353
machine_learning_techniques -1.1456667 2.826283 0.43404657 3.2737916 -0.66610503 -0.7399194 -1.8460793 0.5838952 -1.9075136 0.9496518
deep_learning 1.1200858 2.386473 -1.0827378 3.7579477 -1.0035754 -0.47725755 1.3540467 -0.79031664 1.1906368 3.2228255
optimization -4.959671 5.9026785 2.5585704 -0.5055673 1.7990507 3.7188308 5.688227 -2.247973 -1.3997698 -0.9922619
knowledge_acquisition -1.4143366 3.2013273 0.03970977 -0.08014241 1.7652544 3.7514138 3.9075933 -0.78762245 2.2945917 2.9408615
regression_analysis -2.8985064 2.546244 -0.2943918 -2.4118035 1.4367762 -0.49290124 1.4279267 2.2279496 2.1205049 -0.21439797
artificial_neural_network -2.23845 0.662031 -2.5454977 2.1633766 -1.3777109 -0.8540195 3.132233 2.2192805 4.0911684 -0.45951876
female -2.1207936 -4.2078643 -15.29152 1.9736172 -1.1314514 -8.702158 3.7918272 6.065211 0.9413782 4.350544
machine_learning_methods -1.368429 3.5755424 0.81319386 3.9615915 -0.27559415 -0.8801852 -0.8255551 0.19608313 -1.3306521 -0.14497614
controlled_study -2.7072275 1.8241228 -7.421188 4.616791 0.79050153 -4.258768 4.989812 1.4546257 5.93167 -1.8027077
procedure -0.21866024 -3.0516448 -9.874459 -2.4316163 0.053954396 -5.0870395 4.9701614 6.744639 -3.2933326 -0.63243467
supervised_learning 0.2333502 2.5888853 2.4329727 4.569113 1.4923041 -1.8086736 1.1109588 0.45466292 -1.809234 1.7558817
pattern_recognition -1.7768214 -1.079504 0.51473874 0.3460811 2.2221122 -0.7808786 3.686408 0.5220335 1.4883165 3.8173177
computer_simulation 0.5117382 -1.5944489 -5.788261 -2.304249 -0.19884183 0.5124549 4.6942425 1.3754799 -0.41836 -1.1531774
male -3.9641252 -3.512402 -16.35081 -1.0291207 -1.9831895 -11.929722 5.006607 7.7345314 -0.74023986 6.6090326
protein 0.09908161 1.0653727 -2.203181 -1.8837883 0.16460668 0.69706404 4.1991315 11.082677 -11.470626 -11.165213
semantics 4.872581 1.3358335 0.9383925 -0.51449627 3.2835567 -1.7059909 0.61998 1.9390887 -4.0920076 5.2770877
classifier -2.4314594 0.6799951 -0.6564565 10.275099 4.437225 -2.2610247 0.36407575 2.5247552 4.7039366 -1.9110308
classification_accuracy -3.4126422 1.8875527 1.3624098 7.2628303 3.263463 -1.4315385 -0.3021318 1.818832 2.0341818 0.24578312
classification -2.3132925 -0.14737846 0.5529574 7.9110665 4.2734427 -3.3368585 1.0183398 2.6314905 3.263541 -0.90474224
clustering_algorithms -0.4866333 3.0561824 -0.24208902 1.9323 3.2742038 3.8880646 1.8960407 -2.048618 -1.6304013 -1.5190789
image_processing 2.2231581 0.11765572 -2.07144 0.5810848 2.6822522 -4.7095137 5.343726 0.36203346 3.376927 5.392418
prediction -4.6972136 5.909706 -1.7431474 -0.4965992 -0.8569666 -4.238055 0.13411194 3.174339 0.7270235 -4.264258
cluster_analysis -0.013025978 -1.0113729 -3.3301938 -0.29611927 3.1298993 -0.4764032 2.8209102 1.3312243 1.0219744 -2.0031106
machine_learning_approaches -0.44648576 2.7458758 0.30192876 2.9636161 -0.6215837 -0.957278 -1.5162642 0.6492419 -1.9739445 0.46339387
decision_making 1.5027496 0.6585384 -3.5212703 -0.035195533 1.087126 2.8112106 -0.99264246 1.4807518 1.0170933 0.7856301
sensitivity_and_specificity -2.4683607 -0.8010395 -3.7988148 -1.6615112 -0.21772476 -3.4485395 2.8176663 3.6295621 -0.7073713 0.9470929
natural_language_processing_systems 4.479379 2.0086992 -0.33775714 -0.13389024 2.6896005 -1.900749 1.3708143 1.6569444 -1.9839787 3.6085296
natural_language_processing 4.6517453 1.3490725 -0.8915906 0.5265892 2.7473872 -5.34776 1.7274976 2.0929725 -1.6482222 2.7467299
vector -5.0532546 2.8772418 6.1167727 2.805633 2.6014163 2.2058399 3.4191394 2.8646195 0.26314792 2.9927545
diagnosis -0.09351766 -4.063125 -5.1910977 5.715317 1.8408705 0.92603403 1.8914236 2.9121194 5.143969 4.6393847
genetic_algorithms -0.7421622 2.066238 -2.0829372 0.14332062 1.7853944 4.359915 3.2019327 -1.1396556 -0.31538847 -1.8528857
classification_algorithm -3.0045059 1.3945744 -0.29229572 5.831813 3.1319733 -1.9074473 1.34142 0.9247959 2.5466874 -1.6192616
data_sets -2.3891542 4.810023 0.49982712 6.661523 3.074901 -0.44125184 -2.3824687 0.11070198 -1.418863 -2.2674887
disease 1.1269486 -5.110939 -6.6721497 3.1211867 0.6376421 0.29233637 1.0175966 4.120914 3.5396361 3.1021943
accuracy -3.36874 2.614261 -2.4007435 7.4707417 1.5519496 -1.8296376 2.125878 0.9772458 5.907944 -2.0083315
methodology -0.18030752 -2.0874119 -7.1561093 -0.9599654 1.36508 -3.5205088 4.8671274 4.9526997 -0.58356667 -1.7902715
principal_component_analysis -1.6457863 0.38920695 -0.6661751 -1.0491215 1.3766618 -1.0384989 2.0966458 1.3078912 1.4600234 1.267497
adult -2.0858185 -3.7273562 -8.203499 4.4435406 -0.8734393 -3.8090646 2.1384852 4.7621474 2.3944607 1.5251284
benchmarking -0.16974688 0.7594946 -0.75254345 2.0635986 1.288672 2.7864442 1.412513 0.5462502 0.2977445 -0.115542635
iterative_methods -1.7145693 3.2981317 1.7873188 2.0625625 2.2073724 2.7882712 1.5650325 -0.4114255 -0.6355153 1.405375
software 1.3796426 0.049445886 -2.3816307 -3.6802456 0.029744267 0.38360992 -0.022870481 4.2204394 -7.4868474 -0.7398858
chemistry -0.25829563 -0.41028613 -5.997271 0.90819985 0.7416225 -0.5573228 3.9042537 6.2836328 -3.454659 -7.639373
computational_biology 1.0132884 -2.0397944 -3.3293529 -0.7841715 0.7152214 0.03450508 2.166214 3.3088007 -4.297213 -1.3837143
learning_algorithm -1.6660459 3.9888005 -2.1644597 2.0822277 0.12831303 -2.788792 2.9066987 -1.2859915 2.1041849 -1.6569008
animal 0.05049533 -2.4158502 -7.0347815 -0.76018155 0.17365322 -1.7818123 3.5789235 5.6826205 -2.8430514 -3.3557823
image_segmentation -0.32885844 -0.33091933 -0.89290416 1.1944774 1.5984743 -0.82296246 4.332866 -0.46520555 2.971246 5.2844977
signal_processing 0.021186447 1.1264396 -0.35927388 -0.9851218 1.0000844 -2.651793 2.936427 0.44685155 1.093095 3.7156649
biology 2.309876 -5.7434254 -9.890851 -0.7770807 1.7280691 -1.2768348 5.720569 8.70944 -2.8760896 -3.5526981
automation 2.7610662 -1.3424534 -2.8524332 0.8548293 2.2136652 -1.1127961 4.386142 1.2245604 1.7002803 0.21929613
bayesian_networks -0.5010517 2.0379968 -0.4646948 0.9279598 -0.12292986 4.469891 1.1601223 0.95503753 0.8041132 2.4940474
deep_neural_networks -1.5085875 1.8267179 -0.79591566 1.2453753 -1.8024385 3.0764496 2.3196888 1.55384 2.7995026 4.099001
supervised_machine_learning 0.14534861 1.0630051 0.3780176 2.8566284 -0.14730908 -2.7596445 0.10945364 1.0644954 -2.2075193 0.22328492
classification_performance -3.8077564 2.6365879 2.1661217 6.252481 2.8661988 -1.6977491 -0.38588 1.6834751 0.52711755 0.010872503
education 1.3629051 1.4990844 -0.13699616 -0.5421647 1.4552165 2.3122144 2.8092592 -0.54541856 -0.8436121 2.0043209
mathematical_computing -1.7300379 4.9510446 -4.095115 -2.1801934 1.0204147 -1.9603697 4.902188 -0.35841712 3.3878713 -0.08004202
computer_vision 1.4507675 -1.2230237 -3.3267376 0.53707486 0.774633 2.7104611 2.2766247 -0.5766889 0.5515685 2.5514274
genetics 1.220517 -3.0395458 -9.307592 -0.81397647 1.3181497 -1.1706737 4.224523 6.0768046 -3.4256954 -4.3377423
machine_learning_models -0.7093296 3.0006168 0.11273902 2.5375512 -1.2779008 -0.6119361 -1.6037619 0.47610438 -2.1174254 0.2164992
neural_networks_(computer) -0.5554717 -1.2531196 -4.0291333 -2.3027 -2.1213448 0.30343792 3.0530026 2.9994726 -0.013139437 1.9291366
learning -0.08398378 3.93433 -1.8701186 2.4452248 -2.7153606 -5.6242948 2.5541239 -0.7223974 1.0101409 0.7014909
bayes_theorem -0.4744913 -1.805959 -5.6927886 -0.7302694 0.3281939 -1.3806535 3.2875817 3.6435318 -0.13962427 -1.601226
social_networking_(online) 0.8479461 2.877343 0.49302337 0.4077805 0.67700106 0.31789616 -0.020937487 1.125075 -1.1672567 3.00801
image_analysis -1.0150247 -0.634644 -2.9904594 -1.0752498 2.7711504 -2.3953574 5.350204 0.9105459 5.6111207 4.077086
information_retrieval 3.792411 0.8884543 -0.39313912 0.2047742 3.2702935 -1.9633361 2.4217315 1.5668 -0.6277443 1.2480851
e_learning -0.035089463 5.2819395 0.58904886 5.2100534 -1.0002114 -1.570602 0.77597183 -1.6024685 0.20100021 1.6773394
probability -2.1414833 2.0816567 -1.2483693 -2.3911526 -0.33406395 -2.4738626 2.1412601 1.255637 -0.351089 0.32477424
metabolism 0.23387125 -1.6256338 -6.30406 -0.4223614 0.8829791 -1.9608718 2.8016067 5.6662927 -4.4509463 -3.307378
big_data 0.22101755 2.368385 0.35778496 2.5190804 1.9391464 2.321945 -0.8180018 0.34135804 -2.2385716 0.47340664
nearest_neighbor_search -1.5906837 1.9645978 1.1651329 1.9493446 2.2757854 1.0820148 -0.087915614 1.549445 0.9168692 2.1082263
image_classification -2.1395502 0.26012388 0.7518749 6.3146696 3.6559956 -1.980736 1.9354491 1.2964005 3.1599422 2.9542038
information_processing 2.1835144 2.0293024 -1.7398396 -0.005279389 2.6372585 -4.8701086 3.8598843 1.0163093 1.1508067 -0.08663872
automated_pattern_recognition -0.6190399 -2.314821 -1.9080261 0.5860083 1.7158967 -1.617292 3.7612247 1.7619517 1.4892062 1.6733236
pattern_recognition_automated -1.0323766 -2.2831964 -1.912281 -0.76466876 1.2246745 -1.8379511 2.793856 2.5601413 -0.8071725 2.5666254
complex_networks -0.6155097 2.731863 -0.1025893 0.68209606 -0.16555104 6.250232 1.4258025 0.5734517 -0.3698246 3.169906
extraction 1.6651106 -0.0074221194 -1.4568601 2.0125995 3.2790272 1.0663847 2.4386563 0.701463 3.0456765 3.6761532
text_processing 3.0667849 2.6391463 0.49128267 0.9885663 3.2366176 -3.2897122 2.4182978 0.454579 0.22203684 3.4857025
statistical_model -1.6757451 0.76950634 -2.4284961 -2.9716623 0.3284906 -2.0223684 2.2102842 2.89988 -0.535574 -0.55718505
image_retrieval 1.2735562 -0.48690745 -0.054561634 0.7512363 2.6998103 -0.45398536 4.2071943 0.69782645 2.1864252 5.9996643
data_handling 1.7504517 1.7220547 -1.5475348 1.1555927 2.1935537 3.7147772 0.57728904 0.11331685 -0.7786411 0.96013796
convolutional_neural_network -2.0446315 1.1274087 -0.858735 3.1510048 -1.4489067 0.10820682 1.916506 1.3399768 3.423712 2.7078567
convolution -0.04907287 0.45565665 -1.5644482 3.3929188 0.7785972 2.5138407 2.7353208 0.5952945 2.7903354 4.825981
discriminant_analysis -0.8428943 -0.4855916 -1.6484209 0.69449925 2.4739075 -0.72696275 1.8822377 1.4316585 2.831223 1.1380632
middle_aged -1.8686188 -1.5844193 -7.5682125 -0.85855514 -0.8185453 -4.7638702 2.2570467 4.6293283 -2.0685833 3.5598195
intermethod_comparison -2.6546078 2.834474 -4.143029 1.009233 0.71440464 -3.754706 3.6252296 0.91938484 2.999801 -1.1139538
bioinformatics 3.9691918 0.32194862 -2.1456106 0.20858224 2.484398 -0.18825305 1.8093017 2.0993845 -0.60849595 -1.7860862
network_layers -3.050987 4.609492 1.0552284 0.96397 0.012210446 4.4562697 2.0980363 -0.3604326 1.1338062 4.27148
problem_solving -2.220009 3.1666815 0.42808154 -0.58198255 0.12301588 0.6051687 1.7349293 -0.36684576 -1.1652718 -0.047099106
aged -2.3601987 -3.347683 -9.625945 3.5570621 -1.0868522 -4.19434 2.5628974 5.649207 0.60643804 1.9712588
face_recognition -1.5456412 0.28796172 0.98699445 2.3965218 2.9195976 0.2379445 3.2974586 -0.27730173 2.2683637 5.5701027
quality_control -1.2567923 2.64483 -0.70224136 -1.9048463 -0.04420822 -0.046457097 1.7400731 0.036300145 0.24273628 0.91298985
reproducibility_of_results -1.2356836 -1.3427348 -4.4352913 -2.4789114 -0.34741262 -2.134053 1.8943576 4.311391 -3.4346073 1.8586594
random_forests -1.9676785 1.7253989 0.04059875 0.3907069 0.5204274 -1.9234432 -0.43583396 2.6978328 -0.29128468 -0.60664266
evolutionary_algorithms -1.0536369 2.6519196 -0.6085696 1.8193586 1.4676725 3.668971 2.2730777 -1.267182 0.2679961 -0.20949504
radial_basis_function_networks -3.571242 2.9869668 0.8423959 0.84829897 -0.29801795 2.4019191 1.8250319 0.47470668 1.1007702 1.9940144
gene_expression -0.6703379 -2.6868665 -4.0244255 1.6044929 1.2160605 0.24744153 0.32074812 3.4209926 -0.6255461 -2.759855
internet 1.6299773 0.6138644 -2.2469218 -1.9744925 0.35427913 0.51462936 0.32500902 0.9844455 -2.2598276 1.1145345
speech_recognition -0.97648776 0.62683594 1.1415725 1.4869877 2.368746 -0.11444494 2.57859 -0.055711307 1.103569 5.728385
mathematical_model -2.6243486 5.077022 -4.557136 -2.125701 0.9967542 -3.2847033 4.9545927 1.0101516 3.38545 -1.8478138
generalization_performance -4.914542 4.7877946 2.5009344 3.6442997 1.3055568 0.0975251 0.4314793 -0.098533064 -0.8146074 -0.032555033
network_architecture -1.2111325 3.2520742 0.42607722 0.5587635 0.050198898 4.368805 1.3387398 -0.18949433 -0.046391204 4.272643
trees_(mathematics) -0.24200055 3.4416127 -0.24349476 -0.14882553 1.6908846 0.79563665 1.2936354 0.06589766 1.0537441 0.1937724
brain 0.4511818 -2.7494195 -5.0442104 1.4963136 0.13437401 0.6669503 2.187073 1.9637252 1.338579 2.72458
adaptive_boosting -0.1649013 1.4626509 -0.64346707 1.5991713 1.2861265 3.1256807 0.32818073 0.7880437 0.113937646 0.58594036
particle_swarm_optimization_(pso) -3.0586154 2.9446347 0.7416555 0.68563354 1.0927953 2.5021126 2.5089927 -0.36574057 -0.25493574 -0.31612304
statistical_tests -0.78796804 0.7042103 0.49205348 -1.0975119 0.98976094 0.13567947 0.89621633 1.6737444 -0.3966774 1.1689994
statistic -1.2369031 -0.11656531 0.50829685 -2.9457893 0.7212706 -1.0606203 0.928677 2.7457364 -1.961013 1.2594539
reproducibility -1.4557087 -2.045614 -6.088809 -3.2296712 -0.471276 -3.4867635 3.0638182 5.5731535 -3.3522685 1.2584789
forestry 0.70278054 1.2422702 -0.88185173 -0.2500601 1.64561 2.8413231 0.80693096 2.2230346 0.06388457 0.33667246
kernel_method -5.227657 4.0334916 -1.5114322 2.6464982 0.9324164 -4.7519093 3.2705047 0.52353805 2.688407 -1.8948784
matrix_algebra -1.3190197 1.9597349 0.8799985 0.94633156 1.3017417 1.8206973 1.4165741 -0.2656474 -0.75260204 1.2468159
stochastic_systems -0.63286674 4.0902057 0.5787975 -1.6353079 0.76429677 3.0948772 0.9778607 -0.39103585 -1.6316739 3.0680482
reinforcement_learning -0.048801076 3.2842083 -0.48713818 0.16120584 -0.8045162 0.122384176 1.3433684 -0.85797626 -1.1700662 1.9589789
computer_assisted_diagnosis -0.20289625 -3.7258549 -6.7532587 1.346225 0.52016604 -1.4034886 3.4695504 3.016739 1.5734242 2.2961485
risk_assessment -1.2094872 0.11822837 -1.8388509 -0.960275 -0.26457638 -1.6737273 0.9163616 2.0067213 -0.02441882 1.2201478
network_security -0.8728313 3.4602027 0.82669693 0.8592027 0.6874124 4.5505414 -0.4612512 0.20918608 -1.9066895 4.317692
behavioral_research 1.2141738 1.2068928 -0.93891656 0.26077825 1.1177367 1.9222295 -0.083224475 0.66188574 -1.27352 2.1131017
databases_factual 1.2659756 -2.7602577 -6.7812514 -1.5495358 0.8107484 -1.8061149 2.601524 4.8062506 -2.869426 -0.21453597
computational_linguistics 2.293876 1.0253012 0.026414711 0.4046725 1.7762192 1.4714462 0.6045268 0.71736807 -3.7310178 1.7334305
ligand 0.24730375 -0.08143635 -1.8254915 -0.22287342 -0.11080261 0.99609494 1.2821268 3.5832999 -3.8617487 -3.480485
graphic_methods -0.34451634 2.0017023 0.91713816 2.0570624 2.3124378 2.5050418 1.2658703 -0.17215413 -0.5668174 1.9692593
mathematical_analysis -2.4184577 4.582239 -4.1003737 -1.8611039 2.3340983 -3.5905585 5.49685 1.1039255 4.848258 -0.77689314
gene 0.9871403 -2.2713184 -4.1119914 1.6293082 1.3205016 1.5122447 1.1666101 3.347422 -1.4379702 -4.461897
decision_support_systems 1.1247991 0.2269425 -3.0717866 -0.5631862 1.014279 2.3473206 0.14096718 2.219598 1.1080924 1.6880256
protein_binding -1.1958683 1.4323857 -3.3143315 -1.0643482 0.13354787 -0.90122783 3.5878072 6.912677 -6.4510546 -6.1320276
scheduling -3.3652983 6.873134 -0.11086142 -1.8321284 -1.1846458 3.9643373 1.4935918 -1.0675129 -9.123598 0.2323395
fuzzy_logic -0.33466873 -0.79740864 -2.7169275 -0.96898395 0.46129015 2.8355906 2.0373917 0.6312695 0.14607012 0.65252054
receiver_operating_characteristic -1.8370726 0.14053589 -2.1041324 -0.17377356 -0.28797504 -2.6590877 0.9442671 2.5989034 -1.0344406 -0.3417927
gene_expression_profiling -1.0558501 -1.7669058 -4.604748 0.9521397 0.94210386 -0.8677326 0.97921145 3.5475097 -1.5302144 -2.4519973
computer_aided_diagnosis 0.91189235 -2.4371195 -3.876763 2.8244016 1.1622854 1.9771897 1.869665 0.9646174 1.9137318 2.5435338
electroencephalography -0.5320531 -1.9213117 -4.029296 1.3090668 0.2822073 -0.50937927 1.7798706 1.476678 2.6807647 3.7008796
state_of_the_art_methods -1.6581868 2.4161766 1.3455573 3.533512 1.5105884 -0.3845916 -0.0017438694 0.33302027 -0.6942882 0.4722885
physiology 0.25082323 -3.763504 -5.760184 -2.1046815 0.19944021 -1.397199 3.5246923 4.5216746 -0.6979485 2.2327135
intelligent_systems 1.685185 2.4658158 -1.1215861 -2.0961258 1.2024429 4.7618184 1.1863925 0.1951078 -1.323055 3.9839203
time_series -2.9256592 3.8176548 0.8358565 -1.1856818 -0.06044566 1.3517072 0.6643913 0.9605273 -0.003139549 1.4605683
random_forest -2.504372 1.6796135 -1.0391307 -0.17553307 0.24875146 -3.5166306 0.3629556 3.3292992 -0.20083918 -1.0536844
major_clinical_study -2.665087 0.2491247 -7.4620914 2.0710046 -0.18739739 -6.443456 3.0724385 3.0418453 2.4460623 0.56845486
state_of_the_art -1.2631073 1.966911 0.99228036 3.5883193 1.0677568 -1.1509887 -0.69774294 0.53775525 -1.0903666 0.8064159
computer_crime 2.3864543 -1.562517 -3.8116028 0.23659958 0.9349913 3.6575394 1.6237258 -0.07054689 -0.9248929 1.7241164
image_enhancement -0.2233193 -1.4818805 -2.5704427 -0.3160921 0.76153857 -0.6022632 3.354454 0.853503 1.8841064 4.9646926
computer_program 1.783929 -1.6586287 -4.9718995 0.3104565 0.63674515 1.794523 3.478232 0.5910827 -0.18498008 -0.89721715
comparative_study -2.4607167 0.6332197 -4.636065 3.8381064 0.7899152 -3.836768 2.514334 1.8823562 3.070423 -1.4171078
uci_machine_learning_repository -1.2404331 2.5870335 0.16108555 3.5344982 -0.01071801 0.27383918 -0.4051859 0.06704121 -1.2006205 -0.12418484
error -1.6459122 3.456871 -0.6092193 0.19652206 0.8981244 2.7083597 2.2390249 0.09466279 1.0394626 1.3140618
entropy 0.18354236 0.18497021 -1.494614 0.26017126 0.6942978 0.06049966 1.1958706 0.7172498 0.30573264 0.37825906
dimensionality_reduction -2.624106 1.9917699 0.93555355 2.6306634 2.015059 -0.9443257 0.35843593 0.31405056 -0.16662373 0.48235723
data_processing 2.3565495 2.46303 -1.6534894 0.79213166 2.709516 -2.837284 2.9594052 -0.07841872 2.2084792 1.3316643
measurement_accuracy -3.113792 2.6833773 -3.2331045 1.2706116 0.26215518 -4.725278 2.594781 1.4400396 2.4463491 -0.21531059
prediction_accuracy -4.399544 4.5680833 0.3470302 2.7862144 0.21416721 -1.4999806 -1.0712867 1.9179296 0.3849442 -1.7207769
factual_database 0.7724921 -2.0536473 -5.726435 0.07048467 1.1696017 -2.2903788 2.541472 3.7496784 -1.3053696 -1.4071529
ensemble_learning -1.3980026 4.323128 0.895451 4.690768 0.19782032 -1.0832764 -0.52778316 -0.117640935 -0.7858153 0.755629
intrusion_detection -2.0265427 2.5052845 0.6065303 3.1213207 2.1132107 1.9847682 -1.590722 0.3072578 -1.0417473 2.319608
classification_models -2.1921148 1.2835501 1.7683605 5.16519 2.9045582 -0.48177096 -1.2549912 2.045114 -0.24294424 0.3286008
amino_acid_sequence -0.13366577 -0.20055945 -3.5222456 0.48396963 0.4100561 -0.5148359 2.6918392 4.669153 -2.939177 -4.6956425
magnetic_resonance_imaging -1.0639676 -1.6365875 -3.5046575 0.297299 0.07868614 -1.6049851 2.3957548 1.2992407 1.4755964 3.968424
cost 0.7059594 1.6217058 -1.0855701 0.43201092 1.2426895 4.2623343 0.75280726 0.49352396 -1.3184234 1.0189856
data_analysis 0.09783082 1.406885 -3.7493703 0.0925837 3.3127387 -1.7360595 3.1269295 1.1042418 4.4278774 -1.0757865
computation_theory 0.29923064 1.2805214 -0.016095199 0.21677475 1.6430209 4.4483633 1.4533967 -0.10884701 -3.3081255 0.5252372
geometry -0.539749 0.03629011 -1.2807049 0.5696369 0.8227261 0.11507914 2.0875783 0.8417193 0.8484847 0.89553857
statistical_analysis -1.671357 1.0694852 -2.202597 -2.5547721 1.84714 -2.5682678 3.2264662 2.6207538 1.6795506 0.37354678
linguistics 4.1914644 1.2231026 -0.60424805 -0.646779 2.4822247 0.21253374 0.67196125 1.5644617 -3.2394562 3.4910228
robotics 0.8046431 0.6502868 -1.9268832 -2.3749537 -0.07739627 -0.08911556 1.3767978 0.73297906 -1.6756905 2.5227604
clustering -1.05013 2.1432445 0.57570755 4.1296105 4.1577635 3.5659668 -0.033687256 -1.3616034 -3.5867817 -2.1320677
process_optimization -3.670839 4.27722 -0.38666117 -2.0313253 0.72019196 -1.8689172 5.321823 -0.23823182 -0.25624633 -0.71707636
markov_processes 0.9159547 2.6631067 0.22754104 -1.3943151 1.1967947 0.48698187 2.007809 -0.16246663 -0.8947932 3.0977345
diagnostic_accuracy -2.613835 -0.018257275 -4.553824 5.0816617 0.93952125 -2.771727 2.1091733 1.7880462 4.226527 1.2001793
remote_sensing -1.4803075 1.2291354 -0.2381059 0.65326864 1.0999242 -0.79770213 1.7437396 0.6807304 1.1115276 1.9097961
models_statistical -0.65748197 -0.84997857 -3.8759677 -3.864583 -0.046092518 -1.1355661 1.7392179 4.136667 -3.710115 1.2990098
knowledge_based_systems 1.6544886 2.415241 -0.5882592 -1.3547312 1.4731513 2.7235522 1.3682902 0.2801087 -0.93774825 2.7310488
feedforward_neural_networks -2.5089788 2.696035 -0.3093839 1.3571806 -1.0241246 2.4720414 2.4002945 0.8210808 2.5063853 2.549379
object_recognition -1.4520769 0.6206099 1.0578744 1.8476411 2.4769108 0.37465605 3.0486007 -0.3106403 1.4834939 5.4018197
pathology 0.83764076 -3.1175842 -5.7036443 -0.9222859 0.73688805 -1.8777884 3.1919606 4.3221054 -1.0501925 0.99104995
multilayer_neural_networks -2.4240978 2.4482596 0.5121893 1.0061382 -1.08028 2.5717714 2.1545625 1.17595 2.1696756 3.1200342
classification_methods -2.9488196 2.0020847 2.2162848 6.7726936 3.895511 -0.8403834 -0.15900254 1.6254425 0.84314966 0.08794414
fuzzy_systems 0.8897738 2.8766916 -1.3541118 -1.8979859 1.685142 6.619461 2.1914945 -0.39929208 0.08149791 3.780511
vector_spaces -2.656708 2.3509288 3.4520538 1.973063 1.9881374 0.8182221 1.7113903 1.7246094 -0.67239183 2.154622
backpropagation -0.38397947 1.2677658 -1.2655563 0.9738861 0.93668234 2.5487268 2.74676 0.06652887 1.2945796 0.83712906
survey 0.17100032 1.7409905 -0.3398842 0.42233974 0.9725933 1.0277463 0.08726588 0.7422387 -1.9471925 2.3388457
restricted_boltzmann_machine -1.5531967 1.4264147 -0.45056343 1.3185923 -0.44304785 -0.37714255 0.7562603 0.085674316 -0.05725489 1.2503037
human_computer_interaction 1.1866143 -1.3378252 -3.3824837 -0.84260494 0.3979014 0.19258119 1.9820997 0.4986223 0.12805815 2.1870978
convolutional_neural_networks -1.7634971 1.4795339 -0.40267378 2.802525 -1.2747953 1.782147 1.8138553 1.3040056 2.7387052 3.5605643
nonhuman -1.9372753 0.015291433 -6.8066278 -1.3828291 -0.51558 -5.8047986 3.722675 3.5570278 0.34343764 -1.247207
feature_selection_methods -3.4380884 2.8410194 1.7461649 5.547297 2.8004413 -0.65525097 -1.3207723 0.5902332 -0.33582297 0.20579445
active_learning -0.72420204 4.4109645 1.2026122 4.4632616 -0.068318434 -1.2246094 -0.004711133 -0.64542043 -0.93143725 1.3990064
digital_storage 1.1281245 0.7749531 -1.2643898 0.26877913 1.2926749 2.7175765 0.87077457 0.626515 -1.2000022 1.9760797
transfer_learning -0.33396396 3.0722716 0.44187394 3.0112498 -0.27341068 -1.4207656 0.7740374 -0.38462463 -0.43258446 1.7444949
sentiment_analysis 0.43060505 1.4503586 -0.56380093 -0.34900376 2.9320965 -1.7171707 1.4002738 1.3755362 1.1513928 2.2191632
benchmark_datasets -1.835594 2.425528 1.0612223 3.3854697 1.5099033 1.5370636 0.06305069 0.30704814 -0.87490207 -0.023167942
genomics 0.950198 -1.7008299 -5.757719 -1.0820253 0.49178317 -1.37952 2.034338 4.4490566 -3.7524421 -1.8613943
mathematical_models -1.7583015 4.5298605 -3.378318 -2.4864192 0.8509412 -1.6972954 3.8136194 0.71282846 2.2433193 -0.9949958
virtual_reality -0.668473 1.2765416 -0.619407 0.015390674 0.27144137 0.054072134 0.4726305 0.41187117 -1.0788442 0.74543124
k_nearest_neighbors -3.1836574 1.9500496 0.54096407 2.5877156 1.7633829 -1.829712 -0.15795091 1.8679882 1.581318 0.7425057
inference_engines 0.61918896 1.601873 0.14227106 -0.0548447 1.3429177 3.2928586 0.8043717 0.4730233 -1.8402985 2.4251392
internet_of_things 0.28390378 2.0848267 -0.5878207 -0.23109125 0.7527636 1.8360704 -0.45145553 0.47357032 -2.4673643 2.065246
support_vector_regression_(svr) -3.813611 1.8862315 1.4479985 0.2679414 0.3710791 0.33030456 0.78561056 2.8935933 0.31361744 0.072257206
simulation -1.7833312 1.459082 -3.4460075 -3.1796784 -0.18042886 -1.4689931 5.2921343 1.7583517 -0.7747617 -2.2395318
validation_process -2.557086 2.390248 -1.0165997 -0.22417608 0.75441253 -4.4170976 2.636281 1.7759554 -0.3222979 -0.77081025
biological_model -0.5542034 -0.88900095 -5.200824 -0.5797186 0.112579234 -1.1194032 2.6668491 3.4338439 -0.20090984 -2.2902706
training_data -1.6248517 3.7794008 2.6428778 3.8381803 1.875085 0.7011514 -1.042312 0.41372547 -1.930904 0.57183725
support_vector -4.088001 -0.2244571 2.4576137 1.2951919 0.5929275 -0.7343666 2.1066704 4.160292 0.81201535 0.541248
rough_set_theory -0.7145017 1.651993 -0.098896004 0.7383081 1.3953317 2.7091663 0.96122503 0.17878182 -1.1326967 0.039653037
heuristic_algorithms -1.1036395 3.690209 -0.117727384 0.46010303 1.8326732 4.574198 2.1884298 -1.8430492 -1.4422235 -0.46842003
calculation -0.3841345 0.9128792 -2.4334404 -0.2277549 0.5837184 -0.7065277 4.1243196 0.64194995 1.4068259 -2.0296857
gaussian_distribution -1.341448 2.090376 0.16936325 -0.726709 0.96455723 1.9917089 1.6889132 0.10807723 -0.21639784 1.8952601
commerce 0.8279689 1.7055942 -1.071486 -0.07348731 1.0554837 3.2325354 0.49680984 0.70601505 -1.1720636 1.2912886
semi__supervised_learning -0.40132362 2.4914687 1.9791896 4.1913304 1.3145106 -1.7333062 0.87737906 0.48690805 -1.6690013 1.1886451
medical_imaging 0.5927058 -2.014745 -3.7785063 0.20772217 0.60372865 -3.4462106 2.9029748 1.8646684 2.740022 4.1972933
cross_validation -2.070783 1.4019479 0.12495919 1.1778144 0.6628049 -1.1663723 1.1471895 1.1896502 -0.096106544 -0.46560198
logistic_regressions -3.2511 2.7725816 0.37858897 0.25309736 0.19831344 -0.53987914 -0.77862066 1.7492777 -0.12886173 0.09068599
data_base 0.35541388 1.0859545 -4.449715 2.728071 1.9118925 -2.0129364 1.6832447 0.78432935 2.6536906 -2.256546
image_processing_computer_assisted 0.9048128 -2.0608943 -5.3613296 -1.0680413 0.89347833 -2.9693017 4.461838 2.3596509 0.1598275 4.028727
k_nearest_neighbor -3.4133117 1.7734424 -0.021547884 2.3441896 1.561995 -2.6633406 0.19119446 2.0212512 2.1603398 0.5711596
neoplasm 0.3002096 -2.9855578 -6.5178237 -1.4084052 -0.06687128 -2.8200624 2.0292284 4.820503 -3.5540035 -0.21180111
diagnostic_imaging -1.5458446 -2.649043 -6.078361 2.444647 0.4776024 -3.4686017 3.2227223 2.7778063 3.0211303 3.614552
online_learning -0.22097732 3.8234828 -0.2968741 2.904072 -0.9127639 -2.8860507 0.18394877 -0.31019923 -0.42889717 0.5969954
decision_tree 1.122563 -0.1535952 -4.135429 0.62560725 1.2805744 1.9615397 -1.1098592 2.4744518 2.1134262 -0.094502285
time_series_analysis -1.9257622 2.0844812 -0.7275184 -1.865867 1.1536717 -0.72930604 1.940155 1.2866781 1.8463105 0.8245892
sampling -1.4848408 2.2040951 0.450976 0.98861486 1.0427861 1.0405566 0.7559607 0.8678093 -1.2228724 1.1046827
website 0.9905903 1.5779759 -0.18422149 0.5773499 1.5225277 0.993765 -0.0025738725 1.0687977 -2.4208255 1.6765096
search_engines 1.4413376 1.996096 0.46004796 0.31591916 1.7605071 1.7421209 0.14389002 0.7814142 -2.329147 2.8310792
classification_tasks -2.33527 1.0788572 1.5268614 6.209551 3.3798075 -1.061548 -0.4894822 1.8972874 0.67830163 0.2940859
parameter_estimation -1.4658197 2.5597699 0.6111344 0.073865145 1.1157374 0.80716234 2.4972997 -0.2541641 0.33676347 0.69937634
support_vector_machine_(svms) -2.831437 0.08421087 1.372846 1.2505249 -0.016402941 -0.9734528 1.2854997 2.6731312 -0.24690102 0.35265023
robot_learning 0.14606267 3.6155994 0.14056511 2.096305 -0.77499896 -0.6262505 1.2917261 -0.93083173 -0.61473083 2.118049
theoretical_model -1.0951266 0.22765541 -4.7158556 -2.6481547 0.051265042 -2.266247 3.1135585 2.756466 -0.106892504 -1.4137276
mean_square_error -2.4681349 2.9651923 0.047467228 -0.2573508 0.34358487 2.0659125 1.6186662 0.56984824 0.66934526 0.9004421
models_theoretical -0.19872877 -1.3448381 -5.6856265 -3.5543628 -0.13426009 -1.210064 2.7423327 4.069145 -3.2062526 0.1132469
roc_curve -0.875906 -0.9552678 -2.8678842 -0.3756593 -0.31390712 -1.2608932 0.9102703 3.0677803 -1.844237 0.17742719
semi_supervised_learning -0.57252043 2.8058681 2.130085 4.5211806 1.4541425 -1.8838211 0.94286484 0.51407146 -1.8801128 1.1733737
fuzzy_inference -0.61199015 1.0193986 -0.92363256 -0.093231276 1.0970473 4.7268105 1.6662943 0.14098816 -0.5144774 1.5088569
character_recognition -0.63497525 0.10620259 0.322891 1.6758189 2.2163506 0.034291945 2.3499732 0.41633847 1.1937405 3.9223003
protein_conformation 1.3770957 1.3645672 -2.5020776 -1.2784587 1.5726167 -1.1431832 4.106741 4.783257 -4.264765 -4.03039
machinery -1.1304283 2.1145284 -1.0014491 -0.28281236 -1.4965508 0.77220833 0.4457396 0.38243133 -2.912793 1.0869884
computational_efficiency 0.056912746 1.3927215 0.13419355 0.97967696 1.0887474 3.3704646 0.8290689 -0.06277955 -2.7253191 0.7452244
generalization_ability -4.276079 3.71069 1.4839773 1.9244187 0.83390456 0.3904734 0.9215411 -0.034210443 -0.7438182 0.10131367
experiment -1.1283692 2.4405308 -0.53466743 2.3653371 0.80709594 -1.1745663 0.07776988 -0.37764466 0.7623805 0.7752061
data_reduction -0.5427366 2.1308305 -0.5876406 2.7026203 2.744148 0.8950725 0.7635381 -0.077318616 1.0744586 -0.086381376
fault_detection -2.0041366 2.3360493 0.70597905 2.563547 1.8477883 1.5122046 -0.5404836 -0.1560162 0.25558212 2.8511212
robot 0.19597234 1.6289506 -0.95119387 -2.1767426 -0.25438175 1.6189276 1.1092976 -0.07676948 -1.9960583 3.3796492
estimation -0.095096886 2.4621265 0.54562753 -0.6559277 1.7998031 1.8232471 4.190635 -0.7719811 0.9023548 1.4394166
optimization_problems -5.5179815 5.652479 2.5618906 1.6997576 1.3967096 1.7289253 2.7398674 -1.1114396 -2.1063643 -1.2440964
computer_graphics 1.9383615 -2.0122118 -3.7837675 -0.28243905 0.27675077 2.298844 2.0585213 0.1020027 -0.5325629 1.7916496
kernel_methods -4.5015416 4.4931903 0.931444 3.2473357 1.7046419 -1.8916264 1.9964689 0.033738956 1.0108651 -0.68358827
computational_complexity -0.6925582 1.604937 0.44242477 0.7632416 0.77433854 2.0477731 0.9781158 -0.20425381 -2.4805586 0.2526774
computer_aided_instruction 0.9508114 -0.4715632 -2.3198428 1.0547934 1.0921981 2.011493 1.7200521 0.24830545 0.17904913 1.5829874
uncertainty_analysis -0.9721395 1.5341539 -0.9101241 -1.4061531 1.5849463 -0.21346627 1.8308411 0.8007017 1.2715445 0.64163905
probability_distributions -1.5892586 2.3797462 0.5955244 -0.88765544 0.44912446 0.57872283 1.0174352 0.29795235 -1.2912184 1.3728715
approximation_algorithms -1.5507687 3.6759481 0.61511827 1.263556 2.04253 3.5836947 2.3966694 -1.359124 -0.54832035 0.17147659
learning_effects -1.6416684 4.6177177 -0.13187566 1.970688 -1.3270813 -0.60840654 0.44417664 -0.6280679 -2.4543526 0.12829943
information_management 2.506266 1.6549269 -0.7373778 -0.79528016 1.9841083 0.12656069 1.3419486 0.8020347 -1.2122365 1.1023998
recurrent_neural_networks -1.7294196 2.2208397 -0.049124904 0.7843221 -1.4073998 1.8725921 1.536987 1.1754248 1.6458158 2.9721153
nonlinear_system -2.3942006 3.145778 -3.1333163 -2.0996892 0.049378973 -2.6903758 3.3921993 0.77213764 2.2882938 0.9493729
sequence_analysis -0.6242364 -0.11723163 -3.9652507 -2.611094 1.5581441 -2.0541177 3.635554 4.540199 -1.7646843 -1.9075092
multi_class_classification -2.9981022 2.4151514 2.1250594 6.8433933 3.2135088 -1.4331884 -0.40789995 1.5549642 0.24931985 0.3471705
drug_discovery -0.11321724 -0.85166496 -3.5957422 -0.67805177 0.15596625 -1.1663404 1.3071359 3.5172577 -3.2021625 -2.2555878
metadata 0.4034857 1.1369287 -0.34742603 0.687774 1.3142215 0.8451033 0.51831806 0.6845868 -1.2481035 0.98047733
databases_protein 0.86735934 -1.0856483 -5.116325 -1.4514569 0.95541507 -0.46899226 3.0140536 6.6343966 -5.9445996 -3.4613562
text_mining 3.5859342 1.2706381 -0.116195016 1.428907 2.7535567 -0.7040372 -0.23141715 1.6856393 -2.5324125 1.54922
image_interpretation_computer_assisted -0.53720784 -2.7044258 -5.1336465 -1.2229072 0.22703584 -1.5076958 3.394865 2.719104 -0.76679564 3.5113678
incremental_learning -1.273124 3.6262186 0.352511 2.9322956 -0.13589597 -1.3276539 0.7973769 -0.64192706 0.21448867 1.0048691
hidden_markov_models -0.40940773 1.6395922 -0.4787391 -0.63243335 0.19975145 1.4359717 0.30172044 0.44585127 -1.1564804 1.2275531
phenotype -0.3184448 -0.65807015 -3.789373 -1.1747845 -0.09613488 -2.2047877 1.629496 2.820186 -1.9002799 -0.33813095
mouse -0.4770938 -0.39048424 -2.968646 -0.6252087 0.1186367 -1.0957661 1.3488063 2.5439532 -2.111615 -0.44232193
codes_(symbols) 0.6321732 1.0086604 -0.56991464 0.65025955 1.2173915 2.3888242 0.6726378 0.5489147 -0.99128944 1.3952425
feature_selection -3.4974208 2.1966736 0.45519862 6.296079 2.958449 -2.2335303 -1.1350807 0.6742762 1.1833444 0.19638819
student 0.19701281 1.2892106 -0.9202806 -0.36560625 0.2055258 0.631657 0.23623553 0.5000084 -1.5108708 1.3464491
distributed_computer_systems 1.2351191 1.0684663 -2.3215768 -1.7145896 0.70507854 3.4512372 1.7634563 -0.072847694 -1.1041162 2.8433275
convex_optimization -3.2973194 3.9228709 1.359987 0.12354668 1.385881 2.4059694 3.8628635 -1.0974588 -0.9859114 -0.19410141
bayesian_learning -0.27126262 2.378807 -1.3056335 4.0792828 -0.19114688 -1.627506 1.2578958 -0.03833313 1.4965768 -0.24724369
efficiency -0.40205383 2.3254528 -0.35262457 0.74949753 1.1930447 4.5987797 1.0319124 0.032034203 -1.4030358 1.4883353
malware 0.12409262 1.6729151 -0.059560873 1.3076565 1.3917466 2.1995406 -1.0659742 0.8783083 -2.9441504 1.7876608
long_short_term_memory 0.05101785 0.94434196 -0.9594762 0.22364643 0.2688012 0.052671175 0.4986934 0.8517191 -0.3406532 1.4103154
anomaly_detection -1.8714578 2.1953268 0.5275387 2.4101286 1.7022597 1.0261209 -0.79179627 0.11769153 -0.3786755 2.4468415
area_under_the_curve -0.79119575 -0.6015474 -2.8136919 1.8778555 0.11168754 -0.9056022 1.0023596 2.353942 0.2405013 -1.3198285
visualization -1.1366006 2.6672323 0.76167834 0.80783707 1.600727 1.3017806 2.568014 -0.86474496 -0.24754435 0.83188534
protein_database -0.25803635 -0.12466868 -4.852994 -0.9801342 0.95826006 -1.8869132 3.6596198 7.229026 -6.0056953 -5.42998
neuron -1.3322008 0.01043693 -0.8574598 -0.79610837 -0.44982576 1.0269176 1.1927236 0.5000211 0.22173838 2.33174
database_systems 2.5852447 0.4813377 -3.1141717 -1.9885435 1.5806458 2.9256287 1.5839018 1.9341148 -1.7102944 1.9841012
cloud_computing 1.0097252 1.5528136 -2.556288 -1.551879 0.5145848 2.5683475 1.6174395 -0.5257459 -0.64130265 1.6216735
quality_of_service -0.41888964 2.1437507 -0.25445783 -1.0346723 0.52462727 1.6235164 0.05951543 0.7954235 -2.6803343 2.2397318
software_engineering 0.7581346 1.9049096 0.014758978 -0.5315856 0.9719388 2.2586386 -0.38698784 0.8758952 -3.6340609 0.96929383
signal_detection -2.7328649 1.5735493 0.72609633 1.4549196 1.2400208 0.6499714 -0.2329483 0.20671394 0.28274328 3.6075447
random_processes 0.36351594 2.7325244 0.59345585 -0.6412047 1.317045 -1.3118826 1.5854034 0.52197015 -0.53620344 2.3229024
nuclear_magnetic_resonance_imaging -1.1354463 -1.2191494 -3.4805884 -0.035529654 0.009682234 -2.1553617 2.333359 1.5621644 0.91838264 2.9686735
text_classification -1.2676605 1.384828 1.7590716 6.811696 4.054699 -2.095725 -0.12573346 2.0646045 0.6492501 0.80398625
energy_utilization -0.7747619 2.5888815 -0.06274836 -0.4167198 0.9877259 3.0618296 2.2626 -0.48229325 -1.2906868 1.0300057
clinical_article -1.8804387 -0.19598423 -6.3527284 4.746013 0.5429276 -3.3247488 2.856526 2.3912473 4.320778 -0.57535094
heuristic_methods -1.336048 2.8631742 0.49044406 1.4426335 1.7562177 2.0908864 1.3133594 -0.08923324 -1.5302322 0.1720371
machine_learning_applications -0.81919074 3.1641405 1.0923749 3.211467 -0.16763026 -0.44515678 -1.2717694 0.15070808 -2.4396589 0.86085945
objective_functions -3.593601 3.8540375 1.6656169 2.0617466 0.5910816 1.0642023 0.4983217 -0.35583943 -1.6238241 0.45550925
normal_distribution -0.95155054 0.5871472 -1.419836 -1.6755688 0.20570792 -0.30795503 2.0096152 0.7794101 0.07056151 1.1236707
numerical_methods -1.9985529 2.7234511 0.8806372 1.1135212 1.4108126 1.0421022 1.6379308 -0.05906624 0.11014676 -0.00021742185
machine_learning_communities -0.6887036 2.5295699 -0.041134298 2.5414128 -0.59353966 -0.64121854 -0.94885087 0.4266532 -1.9558352 0.5602639
least_squares_approximations -2.5516026 3.07147 1.2130053 0.44924074 0.67608386 1.6239167 1.4773484 0.16324641 -0.8425904 0.93012214
predictive_analytics -1.4170862 3.2520099 -0.69742066 -0.50891924 0.19002038 -0.26391363 -0.30190796 1.7238879 -0.8224614 -0.93746597
mapping 0.46930575 0.01206671 -1.6007112 0.45734257 1.0621258 2.163749 1.7116436 0.97245634 -0.07066651 2.2000928
breast_cancer -1.2076899 -0.30674383 -2.450835 3.118757 0.6318603 -0.91066855 0.8787092 1.4880409 1.4555551 -0.73309535
unsupervised_learning 0.023185529 2.4206433 2.024167 4.1124306 1.3217642 -1.5373937 1.0877131 0.26343393 -1.5451363 1.5700973
human_experiment -0.91597015 0.68939656 -3.0742753 1.1713011 -0.0890801 -3.2656496 0.7767325 0.46958303 0.9593005 0.82076174
energy_efficiency -0.0855536 2.0104158 -0.8035481 0.034782667 0.78323424 4.078525 1.0025645 0.062114675 -1.4988389 1.577436
unsupervised_machine_learning 0.011261808 1.0985307 0.28503442 2.6617098 -0.115269184 -2.4073014 0.17373173 0.86244124 -2.0102859 0.23454775
social_media 1.8075492 1.2776903 -1.0415322 -0.6547331 1.1787542 -1.2480923 -0.284045 1.2774087 -1.786252 1.7237116
personnel_training -0.14764386 1.6682185 0.5332984 0.49928072 0.94049096 0.69825697 0.6094186 0.4984727 -1.1012285 1.5458225
economic_and_social_effects 0.5223265 1.3631086 -0.9009502 -0.08107407 0.84275556 2.03151 0.5805477 0.4832181 -1.6869683 1.3824549
model -2.6822233 0.9462564 -7.040379 -3.5523946 -0.9691618 -4.274498 2.8904765 4.855816 -2.8033369 -1.795595
predictive_value -2.8087687 2.6258397 -1.8256769 -0.6868425 -0.9950929 -3.010758 -0.47828358 2.7858417 -1.4714509 -1.5883635
peptide 0.057088256 -0.213044 -1.3400357 -0.26486158 0.075115584 0.38045222 0.84765244 2.0697744 -1.8421093 -1.7498381
alzheimer_disease -0.79318845 -2.2918754 -4.0117474 2.2079375 0.19117947 -1.413289 1.0686008 2.7200887 1.3398379 1.442526
models_molecular -0.2806771 -0.09825987 -4.630085 -3.0189345 -0.4318761 -0.47157305 2.0041459 5.0014715 -5.740628 -2.1670911
neuroimaging -1.4003785 -2.0106442 -3.6016574 -0.39671063 -0.39649624 -2.4189026 2.4436634 1.7259834 1.4736922 3.6786053
learning_approach -0.9605558 4.124383 0.883707 3.202506 -0.30067176 -1.1420474 -0.88915354 0.21036725 -1.3755988 1.128086
multiple_kernel_learning -2.6517336 3.9699004 1.4264354 3.490734 0.1464896 -1.5655072 0.6076596 -0.29163957 -0.37743846 0.6185336
scheduling_algorithms -1.5726455 5.103827 -0.4348446 -0.56117326 0.9821312 3.7465572 2.497939 -1.928899 -3.8041124 -0.4415006
electrocardiography 0.112073176 -2.1109302 -4.045329 0.45735264 0.30707213 -0.39540455 1.8613983 1.9842331 1.9958671 3.2301626
rna 0.3140747 -0.5913187 -0.28316924 0.4353179 0.05311327 0.42376173 -0.020523047 1.1066461 -0.86544126 -1.332145
young_adult -1.2059596 -1.0116963 -3.3945117 0.4763583 -0.47486225 -1.7004418 1.0744128 2.405117 -0.39108697 1.4396902
svm -0.5146356 0.8658476 0.5454346 0.8367073 0.64122033 0.7365196 0.05874672 0.21613893 -0.4814576 0.6532617
information_theory 2.5530646 1.7777063 -0.51369005 -0.15449575 2.7895007 1.1400019 2.3317266 0.53391176 -0.9857795 0.115879185
online_systems 1.101591 4.149612 -0.53242326 -2.3944457 1.0490017 3.0240803 1.1402496 -0.22576316 -0.86449045 3.9266798
sensitivity_analysis -2.0231447 0.21509425 -2.418347 -2.2359746 1.1486487 -2.5861735 2.9388561 2.353242 1.5724165 0.74114245
binary_classification -2.1485019 1.27236 1.2455306 5.9860396 3.1852837 -1.4345565 0.23853941 1.7302686 0.94467515 0.26009142
sensor -1.5328209 1.3879386 -0.50223535 -1.1112998 0.17937781 0.10741838 1.0462292 0.7890239 -0.95371205 2.014729
multiobjective_optimization -3.1105633 3.5398643 1.2182689 0.51841897 0.9704056 1.6363219 2.5478265 -0.7786873 -0.9839772 -0.32110694
medical_informatics 3.3766828 0.22340176 -2.515462 -0.13222274 1.9985247 -2.940725 1.909743 2.0583773 0.44223225 0.5314107
expert_systems 1.6958003 2.3938446 -1.2141098 -1.2409248 1.3962808 4.243606 0.8368247 0.18277176 -0.17955184 3.3463452
conformal_mapping 1.0486798 0.28127912 -1.5536444 0.014249537 1.0938106 1.2415376 1.3280333 1.1864662 -0.74887145 0.5507277
regression -4.989759 4.58658 1.8520795 -1.3140627 0.17681673 1.6070997 -0.4686663 2.2349193 0.5720284 -0.6083493
object_detection -1.9265069 2.3433235 0.6398131 2.4781451 1.8971673 1.3160948 -0.15198238 -0.13483088 -0.12825754 3.3321369
quantitative_structure_activity_relation -1.4413952 0.5337321 -2.3143914 -1.1527668 0.011923861 -1.9556724 2.1516583 3.118506 -2.2312644 -2.271615
biomedical_signal_processing 0.6747799 0.412123 -1.20667 0.29567453 1.0970008 -2.1637516 2.0795991 0.8483197 1.3861364 2.5450375
chemical_structure -0.55664766 0.6838273 -2.6986623 0.40239847 0.31390744 -0.15939781 2.2857022 3.215654 -1.8073775 -4.055904
failure_analysis -0.58479387 0.78045934 -1.4231117 -1.423895 1.8903921 -0.23374496 2.4122753 0.9693055 2.2016058 0.8711769
linear_discriminant_analysis -1.5284349 0.31929475 -1.0117393 0.57703346 1.8749207 -0.8918577 1.5872992 1.1097996 2.1804433 0.935429
neurodegenerative_diseases -1.0865208 -0.47408912 -1.002699 1.6507777 0.45293748 0.26492348 0.47920847 0.99329644 0.80314565 2.0034242
drug_development -0.44089648 -0.29056913 -4.108857 -0.62436575 0.17710479 -1.5688505 2.0416634 3.580207 -2.2359517 -2.494902
validation_study -3.2441478 0.2677379 -4.353891 0.96278006 0.15960987 -4.8955536 2.5614665 3.350387 0.37910882 -1.4348794
classification_results -2.23517 0.6047974 0.9442972 5.6068935 2.9962513 -1.849947 -0.42391014 2.1744075 0.37622014 0.5275322
gesture_recognition -1.4762131 0.4412093 0.91620415 2.0585418 2.4306805 0.15682437 2.5606165 -0.1370887 1.5124849 4.8872094
gaussian_noise_(electronic) -0.37472066 1.1576915 -0.813155 -0.31237012 0.8801542 1.7617301 1.086439 0.49907586 0.16290249 1.884081
prediction_performance -4.7358694 5.0832253 1.4773613 2.220682 0.19992796 -1.7885077 -1.0331542 1.7497969 -1.1896327 -1.6626341
function -4.624312 4.0603213 0.17882873 1.9321628 1.2756929 0.66154575 3.6205204 -1.0038426 3.2560604 0.6950658
ontology 2.7113273 -2.2730238 -3.6562817 -0.8146246 1.515936 0.047873497 2.2673852 3.4037225 -1.7751551 1.247382
high_dimensional_data -2.3126686 1.9618299 1.0769931 3.555271 1.8743104 -0.60300714 -0.49681193 0.50726396 -1.4655328 0.085482284
reliability -1.960361 1.5370492 -1.0082914 -1.9617693 -0.40672266 -1.2813106 1.429224 1.3239709 -0.58700025 0.27387643
information_retrieval_systems 3.314974 1.9331781 -0.21161458 -0.48031482 2.8880951 0.8154231 1.9932433 0.9573559 -0.8413215 2.4342408
factorization -1.7969943 2.6479344 0.7676062 0.35081756 1.4554343 1.0111657 3.250313 -0.7045921 -0.58423716 0.35971558
data_visualization -0.06499565 2.1738071 -0.34642592 1.2670481 1.9417223 1.4603474 1.8033502 -0.50052077 0.01763172 0.2553044
topology 1.2300595 -1.9617704 -2.4927778 -0.80398196 0.93208426 0.42384994 2.01034 2.639616 -0.9654015 0.21661769
fuzzy_neural_networks -2.185845 2.1492805 -0.5927218 0.7713399 -1.3925313 4.001013 2.5794992 1.1801487 2.5961287 3.2496896
computational_costs -0.22096005 0.99627924 0.566963 1.1240164 0.8329938 1.697412 0.47159857 -0.10188914 -2.8050551 0.15266213
experimental_evaluation -0.6844881 2.1158133 0.09544481 1.9709077 1.2383735 -0.33686715 0.43937248 0.06121554 -0.2753399 0.31274408
statistical_methods -1.8879455 2.028209 0.45391712 -0.6627714 1.5188062 -0.16958371 1.9264369 1.3690711 -0.21983223 0.4294006
decision_support_system 0.22847673 -0.46845385 -4.453878 -0.49287406 0.47774577 -0.45012015 0.70755947 2.7033217 2.3685155 0.32821995
pixel -0.61463547 0.67586917 -0.20479077 0.3474793 0.5436241 0.10005423 0.89914304 0.20138721 0.21620744 1.6837512
adolescent -1.1318997 -0.51038057 -2.6580875 1.168513 -0.28555086 -1.2199584 0.8537551 1.7183706 0.043810505 0.6850086
amino_acids 0.127473 0.027120387 -1.4730223 1.0487474 0.39653456 0.84499466 1.5836321 3.2180452 -1.869211 -4.032575
large_dataset -1.2490413 2.6408813 0.7551169 2.229835 1.382254 1.4682324 -0.22870608 0.3124189 -1.7151349 1.0005468
knowledge_management 0.8994305 1.7473277 -0.6837295 -1.3282874 0.8099078 1.6890024 1.3130531 0.1951628 -0.7089283 2.319831
genetic_algorithm -1.5827914 0.80932623 -4.1364717 0.19511445 0.96662146 0.37325948 3.8218353 -0.22119726 1.612735 -3.4873786
design 0.06790302 1.3276162 -1.5113372 -1.095781 0.068947285 2.2629228 1.1149734 0.5855738 -1.7001129 0.46332783
conditional_random_field -0.5197231 1.5419164 0.4505 1.5259233 0.99652976 -0.59190696 0.016688444 0.897173 -0.9814112 1.2879246
binding_sites -0.33270028 0.19222973 -3.0104651 0.106663376 0.3560789 0.013533119 2.0887525 3.716345 -2.941674 -3.153187
set_theory -0.5541769 1.853735 -0.11873908 0.08982321 1.5019248 3.890955 1.6523545 -0.05786057 -1.3173172 0.3219786
inverse_problems -2.1070282 3.0143719 1.2454091 1.6363974 0.86840695 1.409748 0.869935 -0.24947378 -1.3408673 0.65555114
image_quality -1.3450983 0.27707326 -1.5255734 0.16140087 0.8670288 -1.1371125 3.393099 -0.09040602 2.6681433 4.4732857
fuzzy_sets -1.5141844 1.797175 -0.51096404 1.4034764 1.5513713 4.25342 1.0728937 -0.13155717 -0.52308404 0.6939263
optimization_algorithms -3.647739 5.1218705 1.694364 1.2338288 2.2416084 4.2157884 3.2772968 -2.1464245 -1.1927027 -0.8687169
sparse_representation -0.6868549 1.2375609 0.5972996 1.9468988 1.273985 -0.6699775 1.4200025 -0.0050903056 -0.062406212 1.3895035
image_recognition -1.6710881 -0.36934617 0.7155565 2.3797882 3.2248888 0.06616452 5.0478945 -0.6552405 4.1370473 8.186703
genetic_programming -0.25513414 0.9809577 -1.0558195 -0.27469134 1.1839457 3.2108173 2.3088381 0.86952376 -2.097803 -0.37218937
training_sets -1.7811425 3.3335016 2.210256 3.5016394 1.6030331 0.6372222 -0.65694404 0.8114221 -1.6401207 0.43395883
gene_expression_regulation -0.6707812 -1.6291884 -4.0674405 0.5889516 0.9687155 -0.9446594 1.566686 3.3362234 -1.2706155 -2.4072285
graph_theory -0.07844086 1.2684301 -0.4608733 0.25232512 1.3399818 2.982699 1.4842758 0.1100685 -1.1700009 1.2807976
feature_selection_algorithm -3.4403858 2.269442 -0.3627842 4.78961 2.2333071 -1.528122 0.057063524 0.06544053 1.1570472 -1.2390473
correlation_coefficient -1.3037425 1.4308668 0.04995194 0.7339082 0.57183415 0.66935396 0.49529862 0.8376879 -0.94657207 -0.5527682
patient_treatment -0.20789629 0.29247615 -1.176086 0.1593676 0.23472476 0.12887903 0.50116545 1.0968939 -0.16218147 1.5503757
diagnosis_computer_assisted -0.054150376 -3.8102322 -7.1445227 -0.1683552 0.15948461 -1.4283794 3.4203904 3.414044 0.3864746 3.0624633
proteomics -0.30570808 -0.060943168 -2.9031687 -1.2761736 0.10234405 -0.82911557 2.2097025 4.9424324 -4.6596093 -3.4818723
predictive_models -2.0876138 3.6088867 0.22767752 -0.536133 -0.67420256 -0.1086 -2.0499718 1.9369265 -2.7423258 -1.1858686
electronic_health_record 1.4921094 -0.7116352 -3.6839204 -0.54160184 0.63176686 -1.8174895 1.0809234 1.9305863 0.40667573 2.1356332
embedded_systems 1.5454274 2.5866282 -0.78284395 -1.2398046 1.4002815 4.223121 0.9944731 0.29027334 -1.2139122 3.4624627
signal_processing_computer_assisted -0.0410029 -1.5483323 -4.489082 -1.6937529 0.19325529 -2.0911696 3.4064295 2.3171394 -0.72108144 3.294521
binding_site -0.33320075 0.2955548 -3.140677 0.3857037 0.44029942 -0.03953278 2.2558737 3.8402374 -2.8312554 -3.4676414
least_squares_support_vector_machines -3.6013768 1.1307622 1.4492521 1.0655756 0.016265318 -0.33987808 1.5881833 2.026515 0.17409532 0.64511997
thermodynamics -0.19022353 0.17559755 -1.9461807 -1.1324714 -0.2008885 0.27938673 1.1184064 1.8585405 -2.1932867 -0.88915485
open_source_software 0.70284057 1.2895442 -0.35930654 -0.71191144 0.6798491 1.6379846 -0.31209552 1.4214232 -3.6836123 0.6848745
fuzzy_rules -0.5531861 0.6982869 -0.99496937 0.11671931 1.0140972 4.143893 1.4088235 -0.06580239 -0.09177823 0.98229474
smartphones -0.13815156 1.0082679 -0.36890912 0.13421759 0.74841654 1.1129024 0.039502587 0.7537706 -1.4386519 1.7017434
health 1.8493643 0.3871227 -2.1794522 -0.47375986 1.0960165 1.2100793 0.62918705 1.578014 -0.97480905 2.3322816
computer_software 2.3355556 -1.6333675 -4.074328 -1.5502914 0.18616128 2.4525876 1.6032094 1.1142433 -2.5411818 0.45231897
cognitive_systems 0.61193264 1.6729904 -0.84782815 -0.41037476 1.4127227 2.469438 1.2099262 0.32409528 -0.18220097 4.01904
united_states -0.23679389 0.2636116 -2.2897239 -0.49929038 0.2779481 -1.2934802 1.1337752 1.7121208 -1.0696152 0.27628475
diagnostic_test_accuracy_study -2.2676308 -0.074807204 -5.0867867 3.753067 0.600803 -3.3792102 2.319772 2.0995631 3.2213967 0.7732064
dna 0.49875635 -0.50597477 -1.1696522 -0.34292212 0.2829106 0.41275865 0.5432697 1.2110493 -1.3072314 -0.9454744
10_fold_cross_validation -1.4911854 1.1216388 0.27976707 1.0021827 0.6490093 -0.33954936 0.6548121 1.0658358 -0.38553783 0.013341438
image_reconstruction -1.2219584 0.5717234 -0.41293436 1.4515698 1.7924728 0.04020485 3.2595139 -0.08780331 2.5273724 3.67002
machine_learning_problem -2.1190405 4.253162 1.0423175 3.6525145 -0.8436957 -0.70030713 -0.8090243 -0.24215077 -2.235758 -0.12704398
intrusion_detection_systems -1.0764737 2.9060025 0.842977 1.5260981 1.8099267 3.2459946 -1.6867061 0.27832648 -1.8498061 3.0026176
drug_design 0.13114165 -0.94021034 -4.4838543 -1.283242 -0.23725425 -0.81571114 1.9559449 3.605212 -3.035967 -3.13932
semi_supervised -0.82150173 1.3182212 1.9083459 3.5931952 2.173384 -1.9065865 0.64089584 1.4600443 -2.6821163 0.30711335
predictive_modeling -2.2125762 3.749307 0.23049243 0.28325552 -0.28807724 -0.45006087 -1.55158 1.5689113 -1.9710377 -1.3587269
models_biological 0.15310498 -2.2048516 -5.533446 -2.212748 -0.38506427 -0.8841227 1.9274377 4.440356 -3.4805367 -0.4505111
quadratic_programming -0.9924827 2.3329396 1.5689358 0.41822973 1.2550447 2.9258504 1.3683667 0.13298136 -1.9924543 1.0058701
prediction_model -3.9373991 4.6815996 0.018607514 0.050358634 -0.59360754 -1.7613802 -1.6765671 2.5003319 -1.7855893 -2.8193169
kernel_function -5.065316 4.221426 0.83185697 2.5605369 0.90917104 -1.325598 2.1378112 -0.33384496 1.6194854 -0.09975085
machine_design -0.13921703 1.1155126 -1.2419606 -0.549031 -0.9392113 0.6810687 0.24616694 0.7565367 -2.3360841 0.5661965
protein_analysis -1.0415274 1.1352423 -2.7755063 -2.6051538 1.6742834 -2.0723827 4.201801 5.497607 -2.04133 -4.1591926
child -0.6734774 -0.86056 -3.444874 1.2485517 -0.07728049 -1.4176515 1.0566212 1.7622677 0.2114001 0.77775115
teaching -0.121534385 1.4913357 -0.8722864 -0.19624911 -0.100245796 0.56236655 0.45532766 0.37032914 -1.740059 1.3734999
health_care 1.4064269 0.3125938 -1.701477 -0.2447043 0.76933724 0.981534 0.43635878 1.0612035 -0.571505 1.774792
learning_techniques -1.7953541 3.6672223 0.9011817 3.3599372 -0.33122706 -0.64912933 -1.3906821 0.2464105 -1.1288604 1.7176046
mutation 0.04675309 -0.024670163 -1.2649885 -0.8877254 1.055568 -0.9858735 3.789072 1.2969285 -2.1213233 -0.7113412
k_means_clustering -1.2248201 1.9012526 0.38131616 2.5030806 2.284936 1.6725624 -0.011538214 -0.5791385 -2.2137084 -0.7666559
fuzzy_clustering -1.1591209 1.7175453 -0.19302562 2.3221743 2.8117664 4.109194 0.9244537 -0.8810867 -1.8726642 -0.5120104
state_of_the_art_algorithms -1.2042549 2.773172 0.61527187 2.6473365 1.6549747 1.2986476 0.7345968 -0.70157677 -0.831095 0.016338577
pattern_recognition_systems -0.75982094 0.27960387 0.2680854 -0.58643967 1.8401664 1.0352895 2.0187278 0.6653298 -0.18467629 3.9832363
cryptography 0.005076596 -1.343302 -2.4255118 0.47357565 0.40522295 0.2860026 1.1911951 1.2690632 0.42629915 2.9605985
learning_process -1.2661532 5.1124296 0.81443036 2.173987 -0.29260343 -3.1137402 1.3704119 -0.6586219 -0.12231413 1.2684337
gear -0.20264168 0.74984926 0.42221776 0.41738647 0.7880755 1.5083141 0.94076777 0.44006163 -0.27410805 1.1830578
finance -0.53437966 2.755011 -0.3379619 0.06740282 1.1215035 3.6836872 0.7656622 1.0093017 -0.7915863 1.9882803
sequence_analysis_protein -0.37743434 0.12871478 -3.1194484 -1.9766431 0.90888786 -1.0074002 3.0601177 5.1254125 -3.8431878 -3.0637383
disease_classification -1.7170429 -0.50485224 -0.79241407 6.064624 2.726613 -2.4789157 0.50480974 2.3738186 2.3714097 0.6704689
brain_computer_interface 1.0888828 -1.932002 -3.8843865 -0.41103637 0.07677087 1.0320061 2.0335984 0.9062332 -0.23985384 1.7989674
computational_model -0.23320004 0.84696454 -0.80446243 0.14519574 0.5124914 0.9356627 0.8246912 0.6940256 -2.9176018 -0.72423273
training_and_testing -0.8112724 2.2173636 0.58523625 1.4792564 1.0591798 0.6650912 0.07332331 0.90499413 -0.92794925 0.8243991
data_set -1.0319628 3.350724 -0.7030341 4.8208613 2.5826447 -0.6444702 -1.4021597 -0.054194365 0.012323041 -2.2146704
engineering_education 0.697536 1.6939477 -0.29983675 0.07650032 1.0361705 2.2072175 1.0702921 -0.17250468 -1.5579834 1.3220122
multi_layer_perceptron -2.6801329 2.410156 0.5043727 1.4522266 0.3430877 -0.36952627 0.39228302 0.48110646 -0.05557687 0.5558362
learning_machines -3.3358235 5.607024 1.5409993 4.2547336 -1.1814553 -0.14287421 0.6910296 -1.1616597 -0.10988608 1.5551598
hardware 0.36124715 1.4789728 -0.95400244 -0.036468003 0.89767534 3.0520926 0.7419505 0.43361962 -2.218213 2.190194
sale 0.16218886 1.1921327 -0.19446112 -0.040969677 0.58937865 1.1327404 0.21180642 0.4266199 -0.85135394 0.70019746
turing_machines -2.914487 3.597376 1.0866401 2.319951 -0.1977656 1.6332589 0.781348 -0.43712837 -0.97068256 1.6677182
monitoring -0.7629554 0.34150332 -1.5956924 -0.8137178 0.054826565 0.0641949 0.7844168 0.88951606 -0.23008768 2.5700467
brain_mapping 0.40983912 -1.3341237 -3.0158286 0.7915924 0.43701944 0.96960205 1.6535988 1.3739247 0.39094332 1.6375015
wavelet_transforms -1.2408264 0.91271 0.16964628 0.98439837 0.8886418 1.392063 1.2461771 0.3481249 0.31602532 2.613253
object_oriented_programming -0.07113112 1.8803159 0.46942097 0.11898188 1.1650388 2.634549 1.1345967 0.16941036 -2.0411713 1.3040166
color -0.02183626 0.007341596 -1.6874636 0.7399888 0.6610046 0.3298161 1.0298177 0.8867323 -0.120904185 0.95289534
data_privacy 0.95338327 1.6903155 -1.4136735 1.4762747 1.8121544 1.6746647 0.13868453 0.17347953 -0.07315365 -0.16967666
spectroscopy -1.1379282 0.38101467 -1.269023 0.06785023 0.4248696 -0.5985195 1.5059367 1.2398703 0.09475358 1.2880161
breast_neoplasms -0.5530733 -2.0062568 -4.924057 0.19185145 0.13094519 -2.0398614 1.4980271 3.4973774 -1.484388 0.078301944
conceptual_framework -0.9579737 0.9987745 -2.0541236 1.7769619 0.47939232 -1.3509444 1.4983498 0.65588105 1.3468342 -0.62859106
learning_methods -2.3030133 5.083087 1.5798529 4.487282 0.37047672 -0.8001014 0.3415148 -0.4470934 -0.08740183 0.19279052
research 1.7490383 2.1911902 -0.15926169 0.45310938 1.9881583 2.442785 -0.3612969 0.9490039 -2.0139542 2.9932249
escherichia_coli 0.01989375 -0.2378381 -2.1380877 0.042812057 0.38925147 -0.06521678 1.0676142 2.0207753 -1.3303235 -1.1645776
parkinson_disease -0.88455874 -1.8041013 -3.6227846 0.43897983 -0.20400193 -1.8677256 1.056486 2.6342492 0.6678669 1.6450185
machine_translations 0.22114302 2.5409033 1.2991185 0.56302387 0.47718796 0.8009415 -0.33998963 0.58783436 -4.28423 1.6509861
state_of_the_art_approach -1.0478489 2.0973504 1.0605371 3.0418732 1.0088508 -0.5109773 -0.98042 0.7054361 -1.5655433 0.9366551
recommender_systems 1.0292314 2.4501169 -0.43844295 -0.94281644 1.1767129 3.043563 0.5632952 0.1672829 -1.0405995 2.6451843
application_programs -0.9390494 1.8090965 0.18434726 1.5149013 1.4844925 1.0364016 0.80596566 0.6632615 -1.865249 0.25684312
information_analysis 1.778975 1.33756 -1.1985803 -1.352028 3.2729845 -2.0653505 3.035097 1.4729209 1.6069503 0.1043921
feature_representation -1.5182931 1.6564102 1.0921257 3.9232852 2.1487498 -1.1275866 0.62656164 0.23456764 0.07365478 1.9167942
cytology 2.1486251 -2.9690359 -4.4023914 -0.27182755 1.281453 0.41285133 2.6217375 3.611932 -1.0635461 0.37129185
quantitative_structure_activity_relationship -1.4619284 0.6686414 -1.7385545 -0.898787 -0.0074304556 -1.5040299 1.4622004 2.9351046 -2.667101 -2.0654054
uncertainty -0.91191375 1.661565 -0.42895165 -0.60006315 0.33946064 0.53644127 0.5795215 0.45119217 -0.813028 0.39085996
user_interfaces 0.4197287 0.34309804 -0.9389248 0.11325594 0.5428375 1.0284711 0.62487 0.8489408 -1.7046907 1.2387292
tumor -0.21823676 -0.9973379 -2.1597593 0.7432824 0.34069216 -0.8631689 0.7490649 1.7544881 -0.44441238 0.15223154
self_organizing_maps -0.76189315 1.2701592 -0.6042261 0.464047 0.54535264 0.8017394 0.94501805 0.42790586 -0.025292272 0.78375524
signal_to_noise_ratio -1.5991236 0.38558596 -0.55711466 -0.6603096 -0.0046530194 0.11832131 1.1258373 0.86914736 -0.27879834 1.864409
computer_interface 1.8958101 -2.289081 -4.249977 -0.1497722 0.21432462 1.588134 2.168353 0.6736599 -0.43211618 0.90325207
activity_recognition -1.7651772 0.2605624 0.47540823 1.1044345 1.9793105 -1.0592562 2.491151 0.87623376 0.54608965 3.4825907
program_processors 0.504684 2.2525475 0.109401815 -0.49745452 1.1538186 0.2764367 1.9541003 -0.05185723 -0.86091065 1.7847561
prognosis -0.49698225 -1.7394165 -2.652735 1.2036037 0.27758208 -0.5773902 0.9119326 2.0346553 0.9636086 1.487034
soft_computing 0.5726897 1.7618718 -1.8141931 -1.729179 0.47158048 2.5614252 1.4335413 -0.6728358 -0.6458629 1.8592645
machine_learning_algorithms -0.49456435 3.6839619 -0.3570668 2.3636894 0.21651506 0.505773 0.64055336 -0.987139 -1.036024 -0.37691146
content_based_retrieval 1.3049911 0.8145421 -0.036605336 0.8059065 1.7804614 -0.301263 1.0997801 1.006869 -0.8932851 2.05933
monte_carlo_methods -1.3518138 2.0742502 0.16793874 0.3564315 0.9196022 0.55234504 1.2292211 0.39193004 -0.61460435 0.13910273
molecular_dynamics -0.47415784 0.5225681 -3.0772119 -2.1134279 -0.5011102 -0.3996084 1.9105104 3.5454383 -3.8517218 -3.3711061
real_time_systems -0.080153435 3.4942777 0.28839138 -1.11395 0.8646118 3.4299989 0.5629655 -0.21633244 -1.1466326 3.2610078
information_storage_and_retrieval 2.3005912 -0.0077601545 -1.5306795 -0.7179281 1.7903337 -1.5935179 1.9915763 1.8228978 -1.0176346 0.91745406
predictive_performance -3.4807677 4.3117857 1.1193193 1.5821192 0.044710286 -1.4649326 -1.1860663 1.639973 -1.5788623 -1.1093316
medline 1.1030064 -0.5966632 -2.2630124 -0.7467594 0.53499305 -1.5740273 0.98217887 1.9464064 -1.487953 -0.02658109
calibration -0.24069834 0.7567088 -1.2357519 -0.33112538 0.73842347 0.08917597 2.8788252 0.291619 0.4294671 0.035200622
comparative_studies -1.5316255 0.7593935 -1.5852597 2.7206995 0.7894715 -1.4290962 0.69601965 0.9933696 1.089189 -0.46393362
supervised_classification -1.2986339 0.667231 1.9788101 5.9197173 3.4772196 -2.2567163 0.41319242 2.024666 -0.17360082 0.37356842
analytic_method -1.1137532 1.648311 -1.7236123 1.6539726 1.2890675 -0.34292188 2.462376 0.27145794 2.1209364 -1.2655607
computer_architecture 1.1129516 -0.54992795 -3.3261187 -0.003486434 0.32742062 3.0682802 2.409274 0.21068458 -0.27333555 2.4216912
sequence_alignment -0.17971334 -0.1677044 -2.890215 -1.2866478 0.11033168 -0.77408606 1.8955952 3.8178253 -3.9670527 -1.849577
medical_computing 0.8918765 1.3421359 -3.4289224 -1.5421542 0.6324301 -1.1753374 2.8459485 0.11811066 1.791067 1.8592495
computerized_tomography 0.86427987 -2.038496 -3.7291684 0.34623733 0.25911337 0.48062915 2.075308 0.99317276 0.58917207 2.1049352
mutual_informations 1.4922855 2.3339891 0.77140737 1.1671146 2.2501206 -0.4694664 0.9480235 0.52888244 -1.4925224 0.19473396
camera 0.009953627 0.36068055 -0.7972231 0.44727173 0.4922871 0.78926694 0.64960337 0.38157913 -0.11122253 0.9519142
backpropagation_algorithms -1.3080045 2.7052238 -0.22417088 1.7769318 1.7271409 3.61036 1.9982771 -0.9427573 0.23796742 0.13205253
accurate_prediction -2.1471334 3.159545 -0.5371278 1.3823825 0.14490661 -0.86852103 -0.02057863 1.3940815 0.8892493 -1.8516599
data_acquisition -0.89765614 2.7456353 -0.973154 1.2507503 2.1741042 3.114034 3.1196942 -0.6789522 2.6227832 1.6670122
multi_agent_systems 0.13444546 3.0864873 -0.15592717 -0.5635469 1.0098183 3.0756702 0.68857145 0.21947075 -1.143527 2.615883
electrophysiology 0.58772683 -2.4868515 -4.1366343 -0.5854996 0.54994565 0.27394378 2.213096 2.5109098 1.0298288 3.0717444
deterioration -0.73202705 2.1100829 -0.75187474 -0.6618612 0.409517 1.0786947 2.4845383 -0.07147791 -1.7411733 0.5360037
manufacture -0.38493165 1.8369412 -0.78114766 -0.4113642 0.42698675 1.782402 1.1212317 0.74310386 -1.4773315 0.89482903
linear_system -2.5037298 3.1347992 -3.4904368 -1.8488067 0.23439294 -2.5021048 3.6722612 0.77378845 2.9913828 0.8470966
online_system -0.58749926 3.2356393 -2.890032 -2.440837 0.04865603 -2.1190755 2.3053007 0.45173624 1.347211 1.5636249
single_hidden_layer_feedforward_neural_networks -2.5549824 2.5140162 -0.26382235 1.0504653 -0.6717512 1.1848551 1.845284 0.40588638 1.3621708 1.2729397
machine_learning_repository -0.9381536 2.538384 -0.047092102 3.4855814 -0.27975842 -0.07284388 -0.72204393 0.18014301 -1.300195 -0.18998809
generalization_capability -3.6030579 3.164746 1.1348577 1.71138 0.7311603 0.36531895 0.8096505 -0.06933225 -0.62677264 0.13862668
wireless_sensor_networks -1.5296001 2.5445268 0.42121983 -0.118844464 -0.2785844 2.9906862 0.6361746 0.52621216 -0.892585 2.8917713
stochastic_models -1.6428787 2.3610818 0.14830877 -1.4034288 -0.42248756 0.44559383 -0.11710883 0.48994762 -2.550613 0.86850244
heart -0.011733453 -0.2212791 -1.870447 0.52287745 0.28934452 0.2707059 0.8028715 0.94998336 0.5048378 1.3682388
population_statistics -0.08506924 0.23505747 -0.69872713 -1.5553442 0.78572035 0.0015259855 1.0449002 1.8126076 -1.974553 0.6331624
information_science 2.5730052 0.8221466 -1.2180417 -0.33626148 2.1019802 -1.2311013 1.8103173 1.2475567 -0.8545248 -0.2992306
imbalanced_data_sets -2.3818877 3.3713372 1.3017629 4.3837104 1.7065557 0.2965857 -1.3278568 0.53897506 -1.5248299 -0.8798854
university_of_california -0.5627156 0.58378124 -0.466454 0.783122 0.5753083 0.92016906 0.1698822 0.6744759 -0.81577146 0.5921086
kernel -5.3961234 4.415077 1.2295827 3.2223718 0.7838642 -3.1865542 1.013234 0.19374822 0.5089216 -0.5245851
wavelet_analysis -1.3049916 0.37394682 -1.5486225 -0.974717 1.9391613 -1.4324223 2.5108871 1.4571488 2.6315935 1.3535967
mathematical_parameters -3.078143 4.8667426 -2.6000867 -0.624126 0.9193774 -3.0270398 4.0254965 0.36098486 3.0271015 -1.1823702
feed_forward_network -2.6260097 2.8073444 -0.23303445 1.4360303 -0.3948046 1.1403375 1.6607753 -0.004074815 1.8732948 1.4437006
ensemble_classifiers -2.693431 2.7034488 1.3402458 6.809164 2.8111494 -0.70655656 -1.368607 1.5890906 0.037859123 0.015123897
abstracting 1.4244076 0.33647174 -1.1493937 0.291988 1.3073953 1.2379186 0.7256806 1.0450971 -0.750262 1.533616
numerical_experiments -1.6341959 2.122218 -0.12203952 1.5862391 0.5462144 -0.5063642 0.51177645 -0.1346072 0.103232436 0.22779384
pathophysiology -0.0071992325 -2.5431976 -4.3072824 -1.238374 0.2041232 -1.1724827 2.5233023 3.2962432 -0.575032 1.9221777
real_world_datasets -1.801862 2.9616673 1.1715083 2.9644637 1.4351674 0.68920445 -0.53470975 0.3249888 -1.80107 0.35742164
software_design 0.4314346 1.2150959 -0.8275849 -1.7127255 0.15704139 1.5868194 -0.13964947 1.6153985 -3.946368 0.101302676
decision_theory 1.0560378 0.7634483 -2.8540323 0.00091334863 1.5622208 4.1617765 0.026943944 1.2750778 0.4536267 0.5664898
databases_genetic 1.0552517 -2.224633 -6.424414 -1.313306 0.9966281 -0.996401 2.678535 4.624428 -3.1803963 -1.6041354
deep_belief_networks -1.0034989 2.0335166 0.0608723 0.8118165 -0.42523855 3.3370748 0.9259298 0.52219945 0.4283128 3.5822382
back_propagation_neural_networks -2.365321 2.2475507 0.029861934 1.4759505 -0.7540827 2.1865432 1.8479351 0.87834615 1.9127064 2.0261652
model_selection -2.3104086 1.9283679 -0.4415476 2.0687466 1.3363755 -0.93637055 -0.09008496 0.71874136 0.021011041 0.16379713
linear_regression -4.3774924 3.904475 0.6817292 -0.6952661 0.18727855 0.44132286 0.5048697 1.5001333 0.9428028 -0.12499081
high_dimensional -2.6623704 1.6781782 0.9469851 3.2828484 1.6939852 -0.82885164 -0.23251043 0.49929214 -1.1460273 0.09061827
fuzzy_system -0.92381346 1.6693456 -4.023299 -1.887435 0.6074883 1.2082607 3.5006986 0.29278314 2.700417 1.1213851
genetic_database 0.30141982 -2.1826816 -6.41721 -0.24127474 1.0251944 -1.4327404 2.9717143 4.0996366 -1.727216 -2.784573
support_vector_regression -4.4041014 1.9489169 1.8549275 0.34113207 0.422522 0.0901192 1.0434589 3.392134 0.6212368 0.15390678
crowdsourcing 0.30436683 0.6443381 -0.69187444 0.17410158 0.6282099 0.5907884 0.443284 0.49576342 -0.78405744 0.6885995
web_services 0.4354876 1.920075 0.14848004 0.022944568 0.94672775 2.1947074 -0.16830078 0.6788893 -2.5815494 1.6383305
simulated_annealing -1.1420184 1.5012735 -0.5841196 -0.660089 -0.01013671 0.93521833 1.0466253 0.27676678 -1.4231358 0.011030342
speech 0.2759725 1.0672839 0.16299891 -0.16724098 0.6109906 0.075094886 0.3002397 0.58180964 -1.2810198 3.1922855
training_sample -1.5892398 2.786215 1.643698 2.7339985 1.3587862 0.39640144 0.019885082 0.8813482 -1.1374278 0.8256712
tensor -0.8530389 0.9373168 0.041882724 -0.05596476 0.33388364 0.3308703 0.6004513 0.26475537 -0.5498811 1.063592
mobile_telecommunication_systems 0.06044047 2.3992586 0.28258073 -0.1155983 1.3029135 2.913736 -0.18783903 0.36030808 -2.2697327 2.9026816
encoding_(symbols) 0.49940437 1.0023926 -0.43916297 0.6030777 1.1583865 2.1808422 0.72523236 0.7147798 -0.98628235 1.5725262
electronic_medical_record 1.4150941 -0.37679303 -3.150021 0.2375321 0.8324161 -1.9725821 1.3344889 1.3810098 1.6393586 2.0603764
texture 0.07428566 0.9955271 0.06068344 1.0032504 1.1860173 0.47221145 0.7686339 0.7242937 -0.21161714 1.7586197
on_machines -2.3069441 3.2535007 1.9975114 2.3567533 -0.3508535 1.9346125 0.08801335 -0.4508259 -2.1226285 2.1023302
computer_prediction -0.4812078 0.72394663 -3.9676304 0.1645406 -0.17830122 -0.5761857 1.7602316 1.2726864 0.9201474 -1.9250712
security_systems 1.247517 2.797039 -0.407237 -1.1994832 1.4530336 4.0881796 0.3437888 0.0996531 -1.4130669 4.029998
mixture -0.4727117 1.1881374 -0.107832454 0.2941244 0.8037404 0.8657856 1.0032569 0.40214664 -0.28377745 1.3458776
area_under_curve -0.70959187 -0.91372335 -3.0952096 0.8418271 -0.061999764 -1.1908092 1.046073 2.6911597 -0.5426241 -1.0956562
high_throughput_screening -0.42259955 -0.022259617 -2.535802 0.058043744 0.20629516 -1.3717799 1.1215364 2.160012 -1.3762293 -1.6697549
saccharomyces_cerevisiae -0.33745793 -0.25082988 -1.7954444 -0.45839813 0.2285019 -0.62400013 1.233288 1.9500645 -1.474266 -0.26167944
classification_technique -2.4638686 1.094391 1.4081546 5.5705132 2.8028758 -0.9573001 -1.0820346 1.9049195 0.24713916 0.82403105
defect 0.2759188 0.73710704 -0.69493866 0.38048354 0.5921854 1.1865237 0.18686454 0.7218552 -0.7951664 0.559113
cost_functions -3.2522237 3.7764876 1.6662083 2.01481 0.89072514 2.4068828 0.79419106 -0.409006 -1.2201201 0.4458743
computer_programming 1.2903904 -0.019822763 -2.4928885 0.03184642 1.0130851 3.528243 2.8113756 -0.0021693243 -1.4657562 0.3445977
computer_aided_design 1.5172175 -1.3191284 -3.3591452 0.4369925 0.49547327 2.4454932 1.7395666 0.3292064 -0.25168225 1.2974027
bin 0.35029113 0.34790668 -0.36321625 0.4006461 0.5633671 1.1504104 0.34267324 0.2523961 -0.31578773 0.44193736
user_computer_interface 1.0674242 -1.4094938 -3.543208 -0.9765415 0.012600108 0.9789239 1.892282 0.9581001 -1.2907906 1.4116559
virus 0.15859333 0.08209316 -0.77477366 0.31789735 0.4676062 0.760284 0.16637239 1.2165364 -1.0462574 -0.17069203
online_sequential_extreme_learning_machine -2.515603 3.6057734 -0.29169637 2.1490874 -0.66070545 -0.93102425 1.2347062 -0.43922085 0.5302553 0.20992622
three_dimensional_imaging -1.67171 -0.9754143 -1.6832105 1.0101283 0.5262187 -2.1572227 1.5416621 1.5271767 0.024959631 1.7636818
laplace_transforms -0.45104873 1.227685 0.52611536 0.9837906 1.1995095 1.6094762 1.0372695 0.21719882 -0.46719146 2.1862397
perceptron -2.1563563 1.3121145 -0.8962638 -0.09305513 -0.37513745 -2.0845973 0.65016717 0.8594598 0.20696415 0.067341864
open_systems 1.7909625 3.579926 0.043052267 -1.7802656 1.6383206 5.1674414 0.38436246 0.0751001 -1.8818414 4.1398134
empirical_studies -1.6313605 1.6597532 -1.0434399 1.3949705 0.4452167 -1.3013204 0.17197545 0.9160343 -0.27287525 0.42033973
data_analytics 1.3198084 1.9204122 -2.5355904 1.1849643 2.1853452 1.0613738 1.3003434 0.3996034 1.577103 -0.64131266
ensemble_methods -2.3803325 3.5623724 1.6612064 3.2718167 2.1206868 1.1676009 -0.10142737 0.5205719 -1.1637287 0.23205444
machine_components -0.7210588 1.0163255 -0.24647272 0.11660023 -0.08466474 0.8534132 0.25071776 0.7440523 -1.6083261 1.5308365
quantitative_analysis -1.5471737 0.9907852 -2.0618708 -1.5486914 1.1406126 -2.2141166 2.4091165 1.9400479 1.0608008 -0.2908927
logistic_regression_analysis -2.4536872 1.8688177 -0.9206229 -1.1508693 0.96922684 -1.3595731 0.76604295 2.0106015 1.510334 0.10212776
manifold_learning -0.7081282 3.2212722 0.7695691 3.3976965 -0.008445533 -1.1658101 0.8323701 -0.58888096 -0.08409831 1.1860732
gradient_methods -1.9002136 3.1617467 1.3064945 1.8529012 1.6344236 1.7798008 1.1292049 0.019072248 -0.7000812 0.8987913
accuracy_assessment -1.7065551 0.9835888 -1.7495351 1.8816061 0.43533665 -1.3816867 1.2048591 1.2668793 1.9725652 0.13735022
blood 0.084242634 -0.45913243 -2.634 0.3804958 0.40651774 0.5110033 0.94387525 1.7060541 -0.34457386 0.41717836
correlation_methods -1.8526443 2.584867 1.267329 1.9271586 1.7537031 0.7813365 0.67774343 0.7240653 -1.1856666 -0.66532075
telecommunication_traffic -0.7714948 2.0272436 0.6639446 1.1770849 1.2892874 1.9432406 -0.66433406 0.46936563 -2.3929315 1.7623192
electronic_health_records 1.435758 -0.72512877 -3.6325438 -0.62611014 0.6036798 -1.7373118 1.0804126 1.9534985 0.24351272 2.1005628
independent_component_analysis -0.94341344 0.49939206 -0.8278934 -0.38662535 1.4549868 -0.36862794 1.6442076 0.9466775 1.1511296 1.5078272
wireless_networks -1.5507458 2.9641483 0.5258385 -0.11940316 -0.58213454 4.166951 0.7191055 0.5883751 -0.8320532 3.6146922
mammography -0.5665781 -2.0983143 -3.4641814 0.406719 0.070310436 -1.5267851 1.9184763 1.8893816 1.2867882 3.339019
auto_encoders -0.45204175 1.1061661 -0.15370564 1.1063346 0.75199205 0.8725326 0.51796776 0.331265 -0.16784343 1.5476063
signal_encoding -1.121891 0.54360735 -0.28141996 -0.26431328 0.27642447 0.99181145 0.97772324 0.7725984 -0.6039886 2.6960173
biometrics 0.010609045 -0.16400546 -1.5352864 0.95339185 0.74907225 -0.017738644 0.7951608 1.3442912 -0.40281644 0.86235714
computational_methods -0.58561236 1.8304787 1.1300926 1.7626967 1.5525888 2.0972443 0.9292493 -0.14244024 -2.4660206 0.03284664
mobile_devices 0.11103807 1.3798267 -0.54117674 0.06154573 0.9062163 2.1641796 0.21591558 0.7244578 -1.9084195 2.2416255
ensemble -2.4294863 3.1746597 1.1068438 3.5078995 1.4688015 0.29365098 -1.5796694 1.1275619 -1.7248274 0.15534665
dynamic -0.20143959 0.8059065 -1.0856655 -0.77825785 -0.08595898 1.5828464 0.8050146 0.5756596 -1.28105 0.025024613
boosting -0.1458004 2.0968251 -0.20994608 1.3935884 1.5345988 3.4561927 0.024560703 1.1582346 -0.3606901 0.4803925
genome 0.29888892 -1.4512964 -5.692575 -0.52599686 0.36533388 -1.6953406 2.0593562 4.2973766 -3.486435 -1.8318015
world_wide_web 0.23471917 1.0315436 -0.32026407 0.35526016 0.77015764 0.28041407 0.2795736 0.7420183 -1.1892873 0.8412182
controller -1.280486 2.6703882 -2.9895792 1.8954933 0.7095682 0.4029747 3.0204785 -0.31585607 3.0013926 0.027642906
learning_models -1.2844527 4.228965 0.54372066 2.1990864 -1.2043636 -0.40453058 -0.87986535 -0.045207236 -1.282077 0.7762058
security_of_data -0.29246616 1.7242134 -0.1761019 0.8032481 1.2425996 1.5130209 -0.66535056 0.9875859 -2.6908379 2.1970809
multitask_learning -1.2044687 3.345303 0.7842211 3.0284805 -0.29456255 -1.1463164 0.72245264 -0.4151332 -0.24595223 0.99984115
gaussian_processes -0.68170977 2.92068 0.5172454 -0.7171266 1.1195459 -0.23720016 1.8485433 -0.07194796 -0.16719125 1.8496401
knowledge_representation 0.029863743 1.7618821 0.470685 0.8738388 1.5407284 0.2890227 2.0083132 -0.06610697 -0.03451912 2.0991707
experimental_study -2.3104517 1.8703454 -3.593833 3.1010087 0.6738458 -3.7207205 1.7097832 0.89820033 2.3901887 -0.26497066
electromyography -0.17787337 -1.821377 -3.8998852 0.6517476 0.20965114 -0.47867006 1.6978947 1.6549016 2.06931 3.5336895
computer_model 0.89545155 -1.5667392 -5.760245 -0.5006112 -0.16678317 0.44034073 2.7235413 0.9202533 0.20544903 -0.53620356
semantic_web 2.3956325 1.3924228 0.89388025 0.17098187 2.0604653 -0.8616492 0.23220631 1.090177 -2.6709886 3.4077554
eigenvalues_and_eigenfunctions -1.3489252 1.7242382 0.37104192 0.75337714 0.77441233 1.2880726 0.8166277 0.23016928 -0.9272122 0.5723551
vehicle -0.8988454 1.3715755 -1.0720756 1.1115773 0.67199695 0.9259903 0.80803096 0.55729556 -0.04624746 0.9679348
probability_density_function -2.0753381 2.08279 -0.11275396 -0.36086175 0.35828793 -0.22536938 1.7969649 0.18026651 0.41018742 0.67630035
feature_space -3.1740594 2.2228925 1.2495707 5.624153 2.4661038 -1.3337407 -0.957776 0.69030625 -0.045647565 0.8739973
mining 3.6004958 0.7490699 -1.298828 0.09868222 2.150894 -0.66431165 0.83502465 1.7376487 -2.2424834 0.9283922
feature_vectors -3.3231084 1.3974303 1.867883 4.4820814 2.036458 -1.0406398 -0.14415123 1.6282455 0.18910867 1.0695779
motion_compensation -0.7797227 0.929785 -0.16985846 0.04471263 1.1860335 0.8673174 1.5733061 0.7465205 -0.300336 2.0315533
regression_problem -5.0312304 4.4399734 0.81990546 0.39151633 0.31309167 0.10670996 0.4212195 1.4800495 -0.8109204 -1.6520064
software_testing 0.36089233 1.496498 -0.24383356 -1.024684 0.5802406 2.0441375 -0.3253247 1.60441 -3.2127438 0.27807125
machine_learning_classification -1.5136136 2.1860614 0.7527853 5.51051 1.0859493 -2.1191962 -0.6538126 1.1406993 -0.16031024 0.08626741
process_development -1.0480081 1.767045 -2.7255723 -1.5635095 0.22480278 -3.12036 2.8365788 1.975281 -0.59586847 -0.030066665
computer_aided_language_translation 2.8475804 0.029677195 -1.6935385 0.08746698 1.4682711 0.55793035 1.5210936 0.81820184 -1.8888395 2.1375196
similarity_measure -0.8215262 1.6050047 -0.23485018 0.8954868 0.843912 -0.72344023 0.47324467 0.524681 -0.74586767 0.2998147
dynamical_systems 1.0155232 2.7104897 -1.0628985 -1.2650713 1.1174848 3.9649882 1.4523946 0.2950224 -0.6377414 2.4686
singular_value_decomposition -1.3994437 1.1366644 -0.36610797 0.3347692 0.61170083 0.13018253 1.6891849 0.42573893 0.36238772 0.7934795
feature_extraction_methods -1.4121186 1.6384683 1.1801779 4.211391 2.9931033 0.9084081 -0.09782529 0.65589774 0.4673117 1.9092547
tissue -0.5144591 0.1734896 -0.72683316 0.95866185 0.36624265 -0.3466876 0.6696802 0.44741026 0.5708182 0.69871485
receiver_operating_characteristic_curves -1.6138469 0.2369881 -1.6632683 0.20772223 -0.19168392 -1.969681 0.57958 2.1786125 -0.9387762 -0.20264311
learning_frameworks -1.19036 3.5080917 0.21372727 2.6787 -0.44650874 -0.0053332835 0.5150712 -0.20715094 0.032746468 1.1146328
motion_estimation -0.59251076 2.002994 0.67812765 0.06896019 1.5124515 1.3981992 2.2618203 -0.16086005 -0.018358998 2.0200646
recognition_accuracy -3.062564 1.6457317 1.157279 3.6311734 2.07767 -0.51148534 1.2486366 0.47313848 1.535031 3.4194632
statistical_learning_theory -1.6043898 3.0690796 0.69566625 1.0257304 0.26740903 -0.33988982 0.88606393 0.3800572 -0.60379016 0.76450104
molecular_genetics 0.14502901 -0.31775618 -5.0900993 -1.6035616 0.30887 -1.0957022 2.7501826 4.76332 -4.1210256 -3.8009014
nearest_neighbors -2.8962057 2.0741765 1.002749 2.5891669 2.0494285 -0.7596654 -0.21520272 1.7415252 1.4168789 1.1726576
twin_support_vector_machines -3.2056887 0.46003655 1.8028159 1.6536165 0.13400325 -0.55257106 1.3822452 2.4706116 0.027324544 0.724029
descriptor -0.5630703 0.42703956 -0.095469594 0.8143122 0.45045698 -0.016818635 0.007167981 0.84846544 -0.8602472 -0.3564312
computer_circuits 1.684433 -1.1177391 -3.8049324 -0.08615675 0.57173854 2.9589396 2.0124242 0.2538986 -0.76754814 1.494347
molecule -0.2350284 0.39427873 -2.8302686 -2.1580489 -0.5104585 -0.53013045 1.81349 4.130614 -4.370105 -4.6394734
unclassified_drug -1.2781029 0.4217637 -0.4714073 4.639131 1.8276157 -1.0375915 0.20515458 1.8194349 1.0558012 -1.4989082
data_structures -0.42000362 2.2422922 -0.4396008 1.7109044 1.3679788 0.8537354 0.46936634 1.4173105 -1.8102843 -2.0914526
membership_functions -2.5166845 2.7624938 1.3026233 1.5535464 0.85315925 1.5146457 0.6921434 -0.09120189 -0.8041457 0.5210566
regularization -2.8230963 2.9779427 1.1820351 1.3412852 1.2409105 0.36426505 2.7736695 -0.43061605 -0.62833685 -0.25381646
computationally_efficient -0.28805336 1.2748027 0.2225597 0.90110654 0.81078047 2.2719462 0.52507824 -0.0059663174 -2.3562984 0.294888
resource_allocation -0.25051314 1.6480176 -0.14435431 -0.42699286 0.64336026 1.1035246 1.2581067 0.21616045 -1.6686957 1.0695242
false_positive_rates -1.2057672 0.5299861 -1.0921748 1.2252924 0.2636704 -0.87453806 -0.12978494 0.90241593 -0.41113868 0.24346906
field_programmable_gate_arrays_(fpga) 0.26219296 0.90320814 -0.81424797 0.13455379 0.8600118 2.09649 1.022761 0.5087184 -1.3091892 0.8539483
standard -0.32839257 0.3950694 -1.5864033 -0.2545505 0.3063152 -0.9214678 1.0836977 1.141088 -0.55687547 0.59887916
testing -0.28854457 2.2895315 -0.033958606 0.32316422 1.0437832 3.159762 0.38647285 0.92003596 -0.53598315 0.753253
statistical_parameters -2.4315078 1.7597363 -0.8333502 -1.1341124 0.43596616 -2.0428367 1.9225832 1.692559 0.092750624 -0.15877867
relevance_vector_machine -2.9104264 0.87315375 0.58620733 0.81026435 -0.2747599 -1.441624 1.6771256 1.7737533 -0.2993021 0.5086003
knowledge_base 0.93537825 1.1960565 -1.2994202 -0.83167225 0.9950018 -0.00438411 1.9621261 0.52346486 0.06546649 0.7660723
constrained_optimization -2.5034006 3.0875564 0.8053244 -0.048041105 1.1352922 1.9183278 3.0962646 -0.7487238 -0.8149765 -0.22356023
radial_basis_functions -4.1136155 2.9960775 1.0459983 1.4503249 0.132992 0.49012774 1.6985025 0.1789602 0.6414646 0.3564891
global_optimization -2.9962254 3.577367 1.0493757 -0.34644628 1.1736004 2.2940702 3.7794774 -1.094928 -0.8375528 -0.6616012
crime 0.6736316 0.9909997 -0.0008498728 0.7997792 1.2791642 2.4832466 -0.38587356 0.20441078 -1.2728931 1.4045492
pipeline -0.035803348 0.2625142 -0.8967102 -0.119192906 0.3155149 -0.38167942 0.75814193 0.79122 -0.4983355 0.3804095
financial_markets 0.15637067 1.8987911 -0.7060249 -0.20307977 0.8065108 2.5670347 0.49766916 0.8816413 -0.59779197 1.1124456
imbalanced_data -1.881839 2.8270898 1.2526475 3.6745594 1.5559539 0.79185337 -0.8574041 0.77068734 -1.5452993 -0.3622545
molecular_model -1.3513868 1.0561001 -4.058808 -1.9930056 -0.5496791 -2.0372806 2.076337 4.3789105 -3.7522087 -4.3790884
location 0.10772326 1.7762402 -0.06320703 -0.049024105 1.7622391 0.6618846 3.0587494 0.20694162 -0.8106215 1.496261
molecular_docking -0.6604443 0.75498784 -3.0943806 -1.4352766 -0.21470852 -0.882797 1.903807 3.7201967 -3.6673675 -3.4135246
electroencephalogram -0.50333244 -1.2020917 -3.3905616 1.4331555 0.31288517 -0.43466452 1.4842719 0.96755546 2.6662493 2.4115415
coronary_artery_disease -0.43333095 -1.318377 -3.0406537 1.1978103 0.18042392 -0.84756243 0.901348 1.7932233 0.8921802 1.0811704
feedback -0.15644605 0.39713046 -1.2474872 0.099628 0.49790666 -0.0719912 1.1476617 0.72021633 -0.35397124 0.80275816
information_systems 3.1230888 2.7032783 -0.53696907 -1.1127386 2.7402515 1.3663393 1.665583 0.6193366 -0.8832902 1.9305903
integer_programming -0.14261763 2.2631617 0.56222415 0.11349374 1.1453097 3.180187 1.439378 -0.10934275 -2.172123 0.60350925
nerve_cell -1.0587676 0.09954425 -2.9328823 -1.1415418 -0.4803554 -2.4380336 1.957541 1.2442446 0.52090424 -0.3397843
predictive_accuracy -3.3439233 3.7592022 -0.6976247 2.347927 -0.04957579 -1.840598 -0.59015965 1.7576666 0.5848165 -1.7270362
automatic_classification -0.9100673 0.22239208 0.39978418 5.31085 3.0260162 -1.9985795 0.39106664 1.9022292 1.1653295 0.34422493
molecular_library -0.5338474 0.50861585 -3.0342882 -1.3088729 -0.14360863 -0.9352301 1.8486645 3.632942 -3.5187423 -3.2783759
processing_time 0.064072534 3.0691748 -0.88429 -0.8022945 0.69547373 -3.4127612 2.475932 0.38571984 -1.9071654 1.5459529
mathematical_transformations -0.7884306 4.311538 -0.4751479 0.011909127 1.9949272 -0.70590186 3.1731513 -0.12586777 1.3592281 0.36452118
query_processing 1.6624882 1.853801 -0.43840414 -0.066850476 1.7776611 -2.995287 2.6614726 0.09972743 0.9569353 2.09184
face -0.11610786 -1.0282636 -1.9008994 0.61378986 0.2139818 -0.9779269 1.0139536 0.92606175 0.5613227 0.38051903
data_communication_systems 0.40834227 2.7804682 0.09530583 0.6144559 1.9577522 3.045313 -0.23313768 0.23146372 -1.7762631 2.5311296
single_machine_scheduling -2.706424 4.2505107 -0.3806293 -0.6023492 -1.2923205 1.2486315 0.9486485 -0.21762556 -5.825065 0.010827803
android_(operating_system) 0.26991537 1.0409839 -0.8692935 -0.18135999 0.6858484 0.78261656 0.4713378 0.9754813 -0.47281837 1.3154157
reinforcement 0.32069537 1.7267346 -1.2267567 -2.436628 -0.45478946 1.4902275 1.3497211 -0.29983026 -1.5583574 2.1739135
task_performance -2.8849425 2.8215709 1.3835175 1.679846 0.38060564 -1.6659861 -0.20549628 0.62583447 -0.6070236 0.14993419
gene_regulatory_networks -0.55182797 -0.4442674 -2.5681345 -0.20060682 -0.563555 0.94121134 1.2178563 2.5175908 -1.2518137 0.08081616
oligonucleotide_array_sequence_analysis -0.30438453 -0.50161475 -3.1478548 -1.4278436 0.6772437 -1.2474064 2.0592682 3.070459 -1.6827108 -1.023382
aged_80_and_over -0.6511765 -1.09572 -3.168884 0.7767318 -0.15808366 -1.111827 0.84897864 1.9621753 -0.41501498 0.9424717
image_coding -0.3504525 -0.6743749 -1.4751561 0.8360138 1.3943803 0.6104778 3.6353831 0.056899227 2.5623746 5.6919646
mass_spectrometry -0.379235 -0.51681674 -2.0379918 -0.18437678 0.23987515 -0.6641531 1.4391081 1.8702227 -0.5118629 0.0061729946
traffic_classification -2.0797555 1.5283941 1.2472255 5.634561 2.9765344 -1.2523104 -0.1393855 1.5106804 0.5366204 0.4138282
single_nucleotide_polymorphism -0.7070975 -0.1875243 -3.0017369 -0.94792473 -0.2646822 -1.2753079 1.3969324 2.2688901 -2.227431 -0.81051487
syntactics 1.3628142 0.84898216 -0.37244192 0.13794151 1.2855257 0.16585091 0.36724952 1.0919191 -1.7890422 1.3198298
benchmark_data -1.4757558 2.234287 0.92742795 3.3837616 1.6553807 1.7983832 0.16972494 0.29973784 -0.7405081 -0.09771508
data_classification -1.6990664 1.4654243 0.7708804 6.948288 3.9615686 -1.6760381 0.112156056 1.6445663 1.5900615 -0.2942682
video_recording -0.13526948 -0.04024279 -1.5388235 -0.1899596 0.5040998 -1.0866305 0.99201953 1.2976061 -0.6086935 1.8622336
investment -0.018027132 0.853207 -0.9296084 -0.5524237 0.23038714 0.87698376 0.6124902 0.67231965 -0.41577044 0.95779866
cell 0.4937954 -0.3777585 -1.8701649 0.6825832 0.45448074 0.64517987 0.90899223 0.89550424 -0.083714604 -0.02694655
breast_tumor -0.7177189 -0.9467829 -2.8881164 1.2151997 0.34018174 -1.2928509 1.095769 1.9674269 0.074517064 -0.34154347
scoring_system 0.37335274 1.2069496 -2.5332525 -1.8236579 0.41988215 -0.9957526 1.9567784 1.4917622 1.0598489 1.0946347
very_elderly -0.62297404 -0.49408847 -2.0988355 0.14861503 -0.13583437 -0.96093524 0.74155504 1.5417395 -0.6319803 0.89804924
k_nearest_neighbor_(knn) -2.532256 1.5491027 0.3932864 2.0394173 1.4834021 -1.2271689 -0.011338185 1.6038517 1.2865796 0.76005346
survival_analysis -0.96623534 0.4366345 -2.4924707 -1.3457925 1.643943 -1.9492837 2.4175582 1.9618572 1.6018885 0.25322765
vector_quantization -2.6675317 2.1868281 1.8263687 0.81613123 1.3256358 0.64233404 3.0222707 0.696087 0.1542329 0.66858065
three_dimensional -1.8052064 -0.10912234 -0.43696207 1.2663885 0.7727156 -1.5288175 0.71720123 1.1698009 -0.832439 0.14585452
statistical_learning -1.305509 2.8154805 0.29892027 0.7664434 -0.041120417 -2.1884227 1.4326167 0.68607956 -0.13930954 1.0258503
enzyme 0.1722042 -0.245766 -1.5396903 0.07894969 0.1388433 0.05204805 0.869843 1.9173651 -1.3442984 -2.0040867
sentiment_classification -0.8290548 1.608326 1.5091081 5.289738 3.3526216 -1.8586583 -0.28827837 1.5660564 0.1788852 1.1430558
language 4.9469604 0.80962706 -1.4794182 -0.6469706 2.068241 -3.9346933 0.5191257 2.3601334 -3.496679 2.1543036
stochastic_gradient_descent -1.7977606 2.2460291 0.12552015 0.37502176 0.14149807 0.1052064 0.54552656 0.23915501 -1.1661197 0.8846065
random_forest_classifier -2.267568 1.8158352 0.2874494 4.300253 2.036589 -2.1479716 -0.4433791 2.4536357 0.7855933 -0.6156672
class_imbalance -1.9004143 1.9802394 0.5498263 3.6926672 1.6085881 0.5115955 -0.14430915 1.0420948 -0.09986571 -0.3334812
redundancy -0.18380776 0.71390665 -0.11705448 0.6226621 0.7593947 0.7503979 0.34395805 0.3751942 -0.601159 0.632109
discrete_wavelet_transforms -0.7478885 0.4776621 -0.35078254 1.0402157 0.88227105 1.2510842 1.0869491 0.42612448 0.4349687 2.003895
electronic_mail 1.2471868 -0.083611414 -2.5935667 -0.006742785 0.8269472 0.5508219 0.8205715 0.97537434 1.0531247 2.4502568
linear_models -1.8403726 1.5412847 -0.9134764 -1.5330746 -0.29478285 -0.22271289 0.3953924 1.2847534 -1.462154 0.44483697
state_of_the_art_techniques -1.3512988 1.5946624 0.63525444 2.7833014 0.7838505 -0.6711681 -1.053196 0.856935 -1.18835 1.1710763
publication 0.35370228 0.3544386 -0.65046763 0.35497174 1.4242749 -1.0225604 1.86159 0.9354655 -0.605502 0.80683094
classification_system -2.265888 1.2524474 -0.11630555 4.7460694 2.9606342 -2.3079498 0.30235186 2.0025618 1.9802656 0.37973198
swarm_intelligence 0.80962205 0.109598905 -0.72690415 -1.0529277 0.7297708 2.7288697 0.9654299 0.67094165 -1.5087743 1.3962681
feature_engineerings -0.68724763 1.8744147 0.4424818 3.0654194 2.002825 0.95505905 -0.5332606 0.41250247 -0.86298203 1.6982397
svm_classifiers -2.4182703 2.0907934 1.2989196 7.4087734 3.0742214 -1.0124482 -0.94142914 1.6376508 0.8726232 -0.1542705
cost_effectiveness -0.1874826 1.349404 -0.79618716 0.7438167 0.5146261 1.5734593 0.4574043 0.28108332 -1.1862206 0.51580703
dna_microarray -0.10687118 -0.34477472 -2.015808 0.94278955 0.7519265 -0.0619942 0.8644037 1.5194083 -0.7110986 -1.0552796
cost_sensitive_learning -0.8674625 2.6792216 0.078325555 2.835136 0.1532519 -0.83080053 0.44351038 0.03927361 -0.41095224 1.0100623
data_extraction 1.5073609 0.45113894 -1.942802 2.256064 2.8383768 0.36244208 1.5265675 0.46413606 2.6504703 1.3246024
cardiology 1.9928933 -3.84894 -5.7025447 -0.6819911 1.0538853 -0.18769705 3.0560935 4.6531563 -0.7831275 0.36214644
support_vector_machine_classifiers -3.2396824 0.7335482 1.5094918 3.7906122 1.1198076 -1.3928887 0.7194427 2.8301637 0.2963512 0.26706702
differential_evolution -1.4022284 1.2430403 -0.6911724 1.2251074 0.36231324 0.63526046 1.5018651 0.17422943 0.5930964 0.95602596
cancer_diagnosis -1.0752839 -1.8145847 -3.5148365 4.7191553 1.151478 -0.5457852 1.3362678 1.877643 3.4773421 1.4901437
genotype -0.17661774 -0.8526662 -3.848629 -1.0152395 -0.06607873 -1.9300159 1.5484449 2.7735617 -1.860754 -0.76303744
gaussian_mixture_model -1.6272033 1.8899828 -0.0038550615 0.39243838 0.6165015 0.33768627 0.30207473 0.5756148 -0.6495784 0.51715887
class_imbalance_problems -2.5012636 3.0089614 1.2495761 3.3967285 1.4276092 0.85358465 0.14406134 0.39686432 -0.89419997 0.016084062
intelligent_agents 0.6201594 1.2017168 -0.9865633 -0.7898528 0.67331547 2.514967 0.88137925 0.4458432 -1.4312445 2.1098258
computer 3.456476 -4.1123586 -7.564235 -1.2578253 -0.018792346 2.822595 3.8779955 0.41002965 -0.4803537 0.6972777
proteome -0.45271733 0.3802552 -2.0935662 -0.7666339 0.15811455 -0.33074486 2.1452715 4.863347 -4.6246486 -3.9531543
agriculture 0.50826275 0.2499409 -1.7461457 0.32555076 0.770395 1.7051382 1.1116438 0.9720941 -0.08224957 0.7662768
gene_regulatory_network -0.8332107 -0.9093574 -3.3173683 0.103938565 -0.6840739 -1.0759845 1.367834 2.6748667 -0.6710236 -1.094219
trajectory -0.95302755 0.92714953 0.218475 0.43808332 0.60005796 0.60016674 0.71295136 0.703147 -0.33981913 0.8822444
function_evaluation -1.7312697 2.4039326 0.8293546 1.3788499 1.1889826 1.0744746 1.0345219 0.17094135 -0.84995633 0.30062518
radial_basis_function_neural_networks -3.6138341 2.603899 0.41146126 1.191291 -0.943258 1.4231764 2.066732 0.8808095 2.0511904 1.8152192
dna_sequence 0.09499424 -0.8805388 -4.2600946 -0.62183464 0.3217573 -1.2192988 2.5567467 4.632219 -3.480943 -3.866717
engine 1.0354341 1.3076298 -0.5515201 -0.4813592 0.8100306 2.0514095 0.54104733 0.3408442 -1.5701479 1.847563
electronic_trading 0.91498166 0.28073126 -2.4848695 -0.13021977 0.71285707 1.067458 0.9771479 1.0148772 0.7837647 2.2266676
polynomial_approximation -0.95520645 2.706771 0.22656955 -0.027449034 0.75768435 1.7372746 2.0230439 -0.2156884 -1.3955085 0.90322745
rat -0.23007576 -0.23115282 -0.9020542 -0.7869512 -0.22302032 -0.7069928 0.42344084 0.9329693 -0.7161462 -0.052894406
nucleotide_sequence -0.30426508 -0.8260979 -4.725845 -1.2486393 0.09928341 -1.7422634 2.478679 4.619894 -3.6901774 -2.559017
pharmaceutical_preparations -0.7592138 0.7563673 -0.8936523 -0.37192222 0.26391202 -0.62899286 0.93252975 1.4383217 -1.7537748 -0.4929002
logistic_regression -3.1475766 2.477003 -0.15554017 -0.05190842 0.14827846 -0.66130066 -0.48807302 1.9155711 0.39231226 0.12135997
imaging_three_dimensional -1.4523499 -0.9095141 -1.6365222 0.644118 0.40784845 -1.8516043 1.3726819 1.3770033 -0.1937772 1.2866818
dictionary_learning -1.4300524 3.6733928 0.3138001 3.0323648 -0.38059524 -1.2505366 0.5455855 -0.30036438 0.18564601 0.14043164
semi_supervised_classification -1.6305083 1.1944293 1.8519652 5.632499 3.122575 -2.1849902 0.42357126 1.7931587 -0.53563094 0.20132378
emotion_recognition -1.4570633 0.35598356 1.3310753 2.005181 2.5833538 -0.4272571 2.2889297 0.08779974 1.2677705 4.944564
linear_programming -1.2395126 2.8728285 1.0043412 0.01557296 1.2335256 2.8904996 1.8863282 -0.20456655 -1.6691109 0.9097347
learning_to_rank -0.94862163 3.4492424 0.38100377 2.498337 -0.6646114 -1.3257644 0.006480085 -0.29447475 -0.5352648 0.6563948
speech_processing 1.5588856 2.0085313 -0.41272292 -0.12817213 1.7528644 -2.8934436 2.500744 0.22126669 0.5730183 3.0790062
noise -1.0523986 0.67257947 -1.5465935 -0.5398395 0.04920927 -1.2062865 1.5102366 0.8621907 0.49523512 0.4126337
protein_interaction_mapping -0.12254268 0.29751897 -1.1176331 -0.6229323 0.46576154 0.13430335 1.1877788 3.4997451 -3.6139145 -1.7071052
neural_networks_computer -0.61992055 -0.41395628 -3.07109 -1.3823483 -1.9202305 1.2845603 2.8204556 2.0152023 0.91318685 2.507127
analytical_error -1.1419812 1.9301803 -1.7430193 0.61720836 0.7797914 -0.19935438 2.3575213 0.54769814 2.3373387 -0.7128148
back_propagation -1.0935174 1.2906288 -1.0795695 1.2222841 0.62128556 0.8111679 2.5175335 0.043722086 1.7068743 -0.060048275
protein_protein_interaction -0.4511155 0.5971687 -1.8432317 -1.3599904 0.23027535 -1.3725333 2.5870972 5.165118 -4.6014915 -4.4199586
biological_marker 0.28964922 -1.2373322 -3.9115992 0.591741 0.42336074 0.19906527 2.0198576 2.6483526 -0.050282706 -1.2557919
economics 0.7533322 0.08463869 -2.0614915 -0.61644286 0.62606865 1.6111221 1.03535 1.5286314 -1.6342773 0.06851954
robustness_(control_systems) -0.25737014 2.0522265 -0.8072974 -0.86318076 0.53679234 1.7123241 1.4646767 0.0004096163 0.18197991 1.6101347
pre_processing_step 1.4531701 1.7668555 -0.0003799323 0.42948848 1.6338055 -2.220667 1.7810158 0.25291896 -0.09578141 1.8609809
effectiveness_and_efficiencies -0.63048714 1.4698163 -0.24641906 0.72457653 0.6384887 1.438241 0.504253 0.28827086 -1.1397666 0.7213177
covariance_matrix -1.0693353 1.0344013 -0.34463403 0.86118084 0.7483615 0.63821566 0.88363475 0.41311258 -0.38423288 0.8017561
histology 1.292927 -2.3488686 -4.0675426 -0.065010786 1.0837669 -0.5105918 2.662817 3.018953 -0.28486854 0.88412946
case_based_reasoning 0.41807917 0.5506455 -0.9081819 0.34824234 0.59343934 -0.005153655 0.5435274 0.70019746 -0.7521154 0.4786975
budget_control -0.38081196 1.9140176 -0.93393254 -0.54378945 0.3373009 1.7404953 1.4548364 -0.27141225 0.3851979 0.9027354
overfitting -0.57716817 1.4933895 -0.26396948 0.6381042 0.5959798 1.0309482 0.39132154 0.3631662 -0.538955 0.58389884
authentication -0.0069577694 0.7764775 -0.11082963 0.7897389 1.3682265 0.4396 1.3726221 0.46092618 -0.39486018 1.0464038
false_positive_result -1.3389295 -0.016669797 -2.0006754 0.9580395 -0.06441488 -1.7473406 0.26447594 1.2073554 -0.078838095 -0.03652507
embeddings 0.5309679 0.98776585 -0.6668625 0.5639949 0.9224462 0.6043296 0.50044596 0.6400733 -0.8821795 1.366002
informatics 5.3828416 0.5236793 -3.174594 -0.88039047 3.002708 -2.5224674 2.6121752 2.5623903 -0.56775105 -1.3852736
signal_transduction -1.4265605 0.2763202 -0.14337724 -0.39645487 0.38655186 -0.49135798 1.2105944 0.75204843 -0.08314831 1.2775245
cancer_classification -2.1801627 0.74018323 0.35609302 6.656933 3.0603008 -2.2055023 0.45612136 1.8563327 1.9236213 -0.30000326
game_theory -0.029801806 1.0814037 -0.5883414 -0.44191438 0.83550423 2.851423 1.2665021 0.07649676 -1.0644691 0.2929513
gene_ontology 1.2956864 -2.349695 -3.9969103 -0.1493535 0.88377345 -0.65090156 1.7451564 3.1346796 -1.4294019 -1.0658711
logistic_models -0.59697914 0.6679682 -1.0014808 -1.0296015 -0.35445693 -0.36930472 -0.90341085 1.3789713 -2.0555649 0.5610671
conventional_machines -1.7389617 2.3764927 1.5631483 2.5070171 0.21895103 1.0921082 -0.18368323 -0.061171558 -1.6692153 1.8841987
condition_monitoring -0.8766303 1.1707652 -0.23117733 0.38772804 0.80663174 0.8574882 0.3012408 0.7749387 -0.89137673 2.289458
statistical_features -1.9597228 1.2556263 0.3964809 1.450762 1.5093617 -1.5014837 0.40353733 1.558334 0.117886834 1.2311741
comparative_analysis -1.3557674 1.3493193 -1.3759755 0.87738323 2.0190878 -1.1544894 1.992087 0.83781475 2.6903877 -0.020734638
numerical_model -1.7355709 1.4449567 -2.1377716 -1.2168822 0.018017065 -0.8287421 1.7869966 1.3162671 -0.106393725 -1.2108587
models_neurological -0.4511938 -1.1276987 -3.770291 -1.5099014 -0.5359188 -0.38759044 1.3372782 2.6390579 -1.9018043 0.9262997
cognition -1.836705 0.022737196 0.6032302 2.2046397 2.9590266 -0.544127 4.4775643 -0.52372825 3.6008396 6.031347
risk_perception -1.1366916 0.8737271 -0.8933578 -0.4704879 0.17751065 -0.73850244 1.2377007 0.87499523 0.2451265 0.96174616
competition -0.4222307 1.4682924 -0.3129267 1.3090247 1.6176018 1.6615111 2.244707 -0.23428062 1.2247058 1.5720799
interpretability -1.0721124 0.34463924 -1.9579598 -1.4963099 -0.2687499 -1.0944947 1.1451073 1.4202513 -0.9093914 0.92547387
feasibility_study -2.0029805 -0.08387225 -5.084345 0.54212487 -0.17877561 -3.9690788 2.7960923 2.4330695 1.5422878 -0.25832784
drug 0.5234755 -1.5582763 -3.6994956 -0.33889943 -0.047767594 -1.2042265 1.3445643 3.3340483 -2.1865988 -3.7101235
filtration 0.13992877 0.98200214 -1.0314521 -0.4398711 1.049148 0.2670247 2.9725537 0.16845834 0.13467821 0.4091166
maximum_principle -0.91214985 1.5200632 0.011049863 0.19233935 0.84742326 0.82010394 1.0537293 0.55153507 -1.1243685 1.3122158
binary_classification_problems -3.3980694 2.5890255 1.6972182 5.3579297 2.4765675 -1.029933 0.008589948 1.1973059 -0.29082647 -0.28325906
recognition -2.1350355 0.3003093 1.6904801 2.324579 3.1977062 -0.4908043 4.066085 -0.56946653 2.982254 6.5701175
metric_learning -0.7048496 3.520982 0.5039287 3.4030938 -0.30006248 -1.2853585 0.7734544 -0.62317204 -0.20319843 1.258229
data_fusion 0.65758747 1.6077752 -1.4394636 1.7668504 1.9274074 1.8178648 0.30000713 0.34545654 0.22273453 0.45463002
models_chemical 0.19675805 -0.88077664 -3.9281373 -2.0260665 -0.25622535 0.18642475 1.3548061 3.6747415 -3.8649797 -1.4811434
performance -4.035606 4.4755445 2.2944283 2.7515547 0.76487154 -1.8743445 -0.5356919 0.70752233 -1.0103152 0.022737797
named_entity_recognition -0.57516426 0.5146291 0.7897861 1.4131747 1.9833264 -0.67014444 1.6255066 0.22987951 0.5439353 3.3049226
twitter 0.34728038 0.76147425 -0.20530543 0.3141095 0.6767526 0.055617858 -0.06889452 0.5837556 -0.9443762 0.7431411
large_datasets -1.7585187 3.0702312 1.1253442 2.7671983 1.4794763 1.25121 -0.4616426 0.29108924 -1.9455286 0.7171323
malware_detection -1.6161416 2.5349514 0.91919684 2.7224286 1.9764378 1.6836097 -1.2851177 0.017517762 -0.89507395 2.7784872
scalability -1.3389173 1.4078325 -0.9038026 -1.2494452 -0.11288534 -0.5239451 0.995244 1.0121461 -0.922264 0.4435083
internet_of_things_(iot) 0.094814345 1.7162251 -0.45786813 -0.12715973 0.61623377 1.4643426 -0.3251231 0.45121905 -1.9820104 1.6537395
drug_interactions 0.24814156 0.16357261 -0.51561797 0.15823095 0.59748775 0.034835894 0.14315389 1.67487 -2.632395 -0.6665943
time_factors -0.9560773 -0.08592835 -2.234396 -1.2955103 -0.36945868 -0.9992629 0.9845114 2.0257213 -1.5170664 0.5831105
biomarkers 0.2115152 -0.7047624 -2.1655178 0.37258056 0.34774497 0.19386937 0.7324501 1.62043 -0.7073778 0.0176321
predictive_value_of_tests -1.73312 1.5989199 -1.1244283 -0.20795244 -0.5002818 -1.5797712 -0.41899934 1.9617485 -1.2922562 -0.5089407
fruit -0.16062243 0.46972433 -0.5334532 0.220958 0.40059653 0.65169764 0.55286205 0.40749717 -0.075096965 0.54391843
ant_colony_optimization -2.5582829 2.9783373 0.6885407 0.05278935 1.1079141 1.8392775 3.0257092 -0.74976546 -0.7575612 -0.5781401
reproducing_kernel_hilbert_spaces -1.5111252 1.1509027 -0.12619956 0.40859473 0.43851027 -0.6012343 0.74840873 1.0208935 -1.0919218 0.6607699
memory_architecture -0.2910095 1.6541585 -0.54082274 0.27019435 0.3312612 2.254178 1.1743746 0.18680392 -0.48067963 2.3775475
training -0.26632085 2.6846027 1.3526617 1.9647864 1.6354036 -0.83640546 0.64198303 1.1704639 -1.6182517 1.0281181
discriminative_features -1.9259692 1.085795 0.44620508 3.8793938 1.6714839 -0.36974275 -0.19399425 0.5946664 0.5572192 1.3779366
concept_drifts -0.5217257 1.091271 -0.7250839 0.8888355 0.49234727 0.21912675 0.5262649 0.248442 -0.037375834 0.081492305
video_signal_processing 0.10116328 1.0949428 -0.30778107 -0.212195 1.0799345 -1.4742342 2.072192 0.43090189 0.56512374 3.0891023
loss_functions -3.9607592 3.9257956 2.003832 2.175473 0.63225514 1.246482 0.6752557 -0.36189935 -0.9572716 0.18125911
mobile_security 0.17506279 1.7068563 -0.1679561 0.4251358 1.1577706 2.5300944 -0.73364794 0.68249154 -2.7184923 2.6379194
